{"learner":{"attributes":{"best_iteration":"92","best_score":"0.022296","scikit_learn":"{\"_estimator_type\": \"regressor\"}"},"feature_names":[],"feature_types":[],"gradient_booster":{"model":{"gbtree_model_param":{"num_parallel_tree":"1","num_trees":"103"},"iteration_indptr":[0,1,2,3,4,5,6,7,8,9,10,11,12,13,14,15,16,17,18,19,20,21,22,23,24,25,26,27,28,29,30,31,32,33,34,35,36,37,38,39,40,41,42,43,44,45,46,47,48,49,50,51,52,53,54,55,56,57,58,59,60,61,62,63,64,65,66,67,68,69,70,71,72,73,74,75,76,77,78,79,80,81,82,83,84,85,86,87,88,89,90,91,92,93,94,95,96,97,98,99,100,101,102,103],"tree_info":[0,0,0,0,0,0,0,0,0,0,0,0,0,0,0,0,0,0,0,0,0,0,0,0,0,0,0,0,0,0,0,0,0,0,0,0,0,0,0,0,0,0,0,0,0,0,0,0,0,0,0,0,0,0,0,0,0,0,0,0,0,0,0,0,0,0,0,0,0,0,0,0,0,0,0,0,0,0,0,0,0,0,0,0,0,0,0,0,0,0,0,0,0,0,0,0,0,0,0,0,0,0,0],"trees":[{"base_weights":[-1.1003088E-3,1.04273304E-1,-1.7004162E-2,5.072204E-2,1.4119105E-1,7.611729E-2,-3.638148E-2,1.18297E-1,3.7934715E-3,3.4113187E-2,1.567101E-1,1.0572993E-1,-4.550482E-2,-4.1459683E-2,1.6861986E-1,3.8734812E-2,1.4591825E-3,-1.0463403E-3,1.6653033E-2,-2.4864718E-4,6.774626E-2,1.9318882E-1,1.2874757E-1,1.2039892E-1,-4.9447924E-2,7.6268844E-2,-1.23653606E-1,-4.7167815E-2,9.975513E-2,8.09045E-4,1.8518728E-3,5.2471337E-4,-1.4973908E-4,6.623207E-4,-2.4894022E-3,1.5428333E-4,7.512418E-4,2.0554329E-3,5.0547597E-4,1.4220871E-1,8.8897225E-4,1.2921263E-1,-5.1751323E-2,1.6121278E-2,-1.3543975E-3,1.2836793E-3,2.0141473E-2,-4.8759002E-2,-1.8309152E-1,-7.0224665E-2,-1.2038903E-2,1.654114E-1,-3.5819747E-2,2.9512368E-2,-2.3616465E-2,5.958442E-4,1.4724034E-3,7.4301906E-2,1.4203621E-1,4.615244E-4,-8.776537E-4,-1.6107664E-2,5.371944E-4,6.4834654E-3,3.1638323E-4,-6.086007E-4,-8.303861E-3,-7.1557757E-4,-2.0834312E-3,-8.907417E-2,4.8621703E-2,-5.286766E-2,5.1777832E-2,1.7936562E-1,-1.4973908E-4,-8.8135E-4,-7.05378E-4,3.8006682E-2,-1.4973908E-4,-1.187396E-3,-3.4682576E-2,1.1133596E-1,2.0039933E-4,-1.4973908E-4,1.4464204E-1,-2.2366842E-4,1.3349354E-5,9.133141E-5,-7.3277947E-6,2.5181174E-5,-1.4973908E-4,-7.0942275E-2,-1.7745265E-1,1.0240091E-1,-4.5979384E-2,8.965778E-3,-9.63478E-2,-6.2469937E-2,7.957833E-2,2.0069117E-3,1.0084142E-3,6.385267E-5,-1.4973908E-4,1.0438174E-4,4.0861737E-4,-3.6427885E-4,1.6729698E-2,-1.8120825E-2,-7.530741E-4,1.24048546E-1,3.1848688E-4,-2.3662791E-4,2.401349E-2,1.5107122E-1,5.5171666E-4,-9.061137E-2,-9.694501E-3,1.9915259E-2,-2.01423E-1,4.5371056E-2,1.691014E-1,7.489489E-4,-7.7230655E-2,6.295359E-2,-9.664027E-2,-1.510583E-1,-5.1881786E-2,-9.812902E-2,7.795432E-4,4.1220773E-2,1.48183E-1,2.2794782E-4,-7.3277947E-6,-2.1585941E-4,1.3349354E-5,1.3610532E-3,5.05476E-2,2.7577518E-4,6.6607E-5,1.5525179E-1,1.8496314E-2,-1.0676389E-1,3.0790789E-3,-7.4020125E-2,7.232243E-2,-9.189699E-4,6.0657106E-2,-1.17799036E-1,-2.794375E-1,7.0782796E-2,-5.4912798E-2,2.3487626E-4,1.7927858E-3,-2.2570163E-2,-9.008622E-4,9.109975E-2,-7.0687056E-2,-1.4365716E-1,-1.4034886E-2,-1.11399986E-1,-2.4884252E-3,3.2429866E-2,-9.660953E-2,-1.7980993E-2,-1.18352935E-1,9.185651E-2,-1.5891882E-2,2.0845503E-1,5.800197E-2,-5.5083633E-6,7.6372235E-4,1.0438174E-4,1.575686E-1,4.2568445E-5,2.3487626E-4,-1.2104645E-1,5.4932088E-3,-4.9816467E-2,1.14405334E-1,8.424676E-2,-1.0529088E-1,1.145096E-1,-3.6912408E-2,9.541938E-4,5.6757926E-5,-6.481897E-3,-1.693149E-1,-3.420469E-4,-2.899889E-3,9.8741E-4,2.8718736E-2,-9.189699E-4,-1.19524E-2,1.8529892E-5,-3.1328874E-4,4.4345856E-2,1.7207539E-1,-1.3107102E-1,7.368669E-3,-1.7693304E-3,-9.4612536E-4,3.7593543E-4,-3.750995E-2,-1.3038538E-1,2.5616035E-2,9.660464E-2,-6.388122E-2,9.444714E-3,-1.0920982E-1,-2.5209982E-4,1.8529892E-5,-3.420469E-4,-1.2334728E-3,2.5887847E-2,1.2971185E-1,7.119731E-2,-4.569443E-2,1.09658845E-1,2.5115747E-3,1.0059854E-1,-4.1691653E-2,8.878527E-4,1.6379774E-1,-1.3170113E-1,-2.0313421E-2,1.2153739E-1,-6.2657E-2,3.7580203E-2,-7.5627595E-2,1.8017165E-3,-1.2845486E-2,5.6758127E-3,1.2211328E-3,-1.5253721E-1,-4.9937665E-3,1.4142367E-1,-2.1774076E-2,3.3939182E-4,-6.618614E-4,4.6059202E-2,-7.05378E-2,-1.4483134E-2,-1.920211E-1,4.7639917E-4,-1.2389481E-2,-2.9546916E-5,-1.4973908E-4,-2.8597394E-3,1.3916558E-3,4.271838E-4,1.8073925E-3,-1.4817035E-3,-3.9886503E-4,1.9807497E-2,-1.4973908E-4,-2.9546916E-5,-4.3830066E-4,-1.4072345E-3,-4.60987E-4,8.1179914E-4,-1.9965231E-2,1.2886339E-3,1.6000658E-2,-6.561617E-3,-8.549674E-4,5.3863495E-4,-2.3316046E-4,-1.3234739E-1,-2.750109E-2,-1.8276464E-2,5.83768E-2,7.8663585E-4,1.5500361E-3,1.8496314E-2,9.292373E-4,-9.20916E-2,-4.00725E-3,1.1931096E-3,3.0699163E-4,2.3487626E-4,1.0825901E-3,-5.8426766E-4,4.2568445E-5,4.271838E-4,1.6533422E-1,4.8065543E-2,-1.3825782E-1,5.991708E-2,-5.839733E-2,1.3583406E-3,1.7878652E-4,-1.222969E-3,1.7365733E-2,5.446221E-4,-1.4973908E-4,-1.3934289E-3,-3.979086E-2,-7.266623E-4,3.1316833E-4,-1.4973908E-4,2.3487626E-4,-1.8385838E-1,-5.403162E-2,3.5007864E-2,-1.1000019E-3,1.6617805E-1,2.5616035E-2,-5.206184E-4,5.6757926E-5,5.6757926E-5,7.108954E-4,-8.406779E-4,-1.4973908E-4,-2.4242818E-4,2.5181174E-5,-5.8426766E-4,-2.1099944E-1,4.2568445E-5,-2.2841066E-4,-5.8636606E-2,4.0840015E-2,2.5454402E-4,4.2568445E-5,4.2568445E-5,-3.420469E-4,5.6757926E-5,2.3487626E-4,4.2568445E-5,-1.4099269E-4,-1.4003031E-1,-4.2134026E-4,-3.8221097E-4,-4.6737987E-6,-3.6136567E-4,5.6757926E-5,6.834942E-4,4.2568445E-5,4.2568445E-5,2.3487626E-4,-4.1363848E-4,-1.1425547E-3,2.0498008E-2,-3.2612108E-4,8.176398E-4,1.6885395E-3,1.8877884E-4,6.1231357E-4,-1.4379364E-1,1.4503276E-2,1.7262936E-2,8.2598865E-4,-8.117431E-2,-1.9385492E-2,-2.4973988E-4,6.8030116E-4,-2.1491451E-2,-5.7451863E-2,-3.420469E-4,-1.9273908E-3,-1.996521E-4,-6.607352E-4,1.4458675E-4,3.9447812E-4,1.8222734E-3,8.451028E-4,5.6757926E-5,4.271838E-4,-2.1970368E-3,-6.197861E-4,-7.0112123E-4,-1.996521E-4,6.3413434E-2,-3.2301098E-3,-1.455802E-1,-2.2841066E-4,4.6905398E-4,-4.4320375E-3,-5.808354E-2,-1.5532756E-1,-5.8426756E-2,8.259889E-2,2.1637559E-4,4.2568445E-5,-9.045806E-4,-1.7377763E-4,-2.6360288E-4,4.2568445E-5,-2.4956514E-4,-3.505349E-6,-1.4973908E-4,-6.432787E-4,3.3170998E-4,8.2598865E-4,-1.4973908E-4,5.6757926E-5,-1.5746651E-3,-6.758308E-2,5.6757926E-5,-1.7377763E-4,2.653128E-4,-8.144818E-2,-1.640312E-1,-3.5819747E-2,-7.266623E-4,-1.4973908E-4,2.3487626E-4,1.004107E-3,-1.3371347E-4,-8.119654E-4,-4.2656723E-2,-1.1313019E-3,-1.2796758E-1,-2.0046496E-1,-8.549674E-4,3.5231426E-2,-1.5686193E-4,-5.03077E-4,-1.6716814E-1,-9.7568296E-2,-2.5443053E-1,-1.6054069E-1,4.2568445E-5,4.4137338E-4,-1.736709E-3,-2.18077E-4,-7.229375E-2,-1.3465217E-1,-2.7666925E-3,-5.8426766E-4,-1.7509591E-3,-7.798888E-4,-3.53695E-2,-8.945531E-2,-5.120208E-4,-1.4750751E-3,-3.8237896E-4,-7.645368E-5,-1.0115432E-3,-5.050601E-4],"categories":[],"categories_nodes":[],"categories_segments":[],"categories_sizes":[],"default_left":[0,0,0,0,0,0,0,0,0,0,0,0,0,0,0,0,0,0,0,0,0,0,0,0,0,0,0,0,0,0,0,0,0,0,0,0,0,0,0,0,0,0,0,0,0,0,0,0,0,0,0,0,0,0,0,0,0,0,0,0,0,0,0,0,0,0,0,0,0,0,0,0,0,0,0,0,0,0,0,0,0,0,0,0,0,0,0,0,0,0,0,0,0,0,0,0,0,0,0,0,0,0,0,0,0,0,0,0,0,0,0,0,0,0,0,0,0,0,0,0,0,0,0,0,0,0,0,0,0,0,0,0,0,0,0,0,0,0,0,0,0,0,0,0,0,0,0,0,0,0,0,0,0,0,0,0,0,0,0,0,0,0,0,0,0,0,0,0,0,0,0,0,0,0,0,0,0,0,0,0,0,0,0,0,0,0,0,0,0,0,0,0,0,0,0,0,0,0,0,0,0,0,0,0,0,0,0,0,0,0,0,0,0,0,0,0,0,0,0,0,0,0,0,0,0,0,0,0,0,0,0,0,0,0,0,0,0,0,0,0,0,0,0,0,0,0,0,0,0,0,0,0,0,0,0,0,0,0,0,0,0,0,0,0,0,0,0,0,0,0,0,0,0,0,0,0,0,0,0,0,0,0,0,0,0,0,0,0,0,0,0,0,0,0,0,0,0,0,0,0,0,0,0,0,0,0,0,0,0,0,0,0,0,0,0,0,0,0,0,0,0,0,0,0,0,0,0,0,0,0,0,0,0,0,0,0,0,0,0,0,0,0,0,0,0,0,0,0,0,0,0,0,0,0,0,0,0,0,0,0,0,0,0,0,0,0,0,0,0,0,0,0,0,0,0,0,0,0,0,0,0,0,0,0,0,0,0,0,0,0,0,0,0,0,0,0,0,0,0,0,0,0,0,0,0,0,0,0,0,0,0,0,0,0,0,0,0,0,0,0,0,0,0,0,0,0,0,0,0,0,0,0,0,0,0,0,0,0,0],"id":0,"left_children":[1,3,5,7,9,11,13,15,17,19,21,23,25,27,29,31,-1,-1,33,-1,35,37,39,41,43,45,47,49,51,-1,-1,-1,-1,-1,53,-1,-1,-1,-1,55,-1,57,59,61,-1,-1,63,65,67,69,71,73,75,77,79,-1,-1,81,83,-1,-1,85,-1,87,-1,-1,89,-1,-1,91,93,95,97,99,-1,101,-1,103,-1,105,107,109,111,-1,113,-1,-1,-1,-1,-1,-1,115,117,119,121,123,125,127,129,-1,-1,-1,-1,-1,-1,-1,131,133,-1,135,-1,-1,137,139,-1,141,143,145,147,149,151,-1,153,155,157,159,161,163,-1,165,167,-1,-1,-1,-1,-1,169,-1,-1,171,173,175,177,179,181,-1,183,185,187,189,191,-1,-1,193,-1,195,197,199,201,203,-1,205,207,209,211,213,215,217,219,-1,-1,-1,221,-1,-1,223,225,227,229,231,233,235,237,-1,-1,239,241,-1,-1,-1,243,-1,245,-1,-1,247,249,251,253,-1,-1,-1,255,257,259,261,263,265,267,-1,-1,-1,-1,269,271,273,275,277,-1,279,281,-1,283,285,287,289,291,293,295,-1,297,299,-1,301,303,305,307,-1,-1,309,311,313,315,-1,317,-1,-1,319,-1,-1,-1,-1,-1,321,-1,-1,-1,-1,-1,-1,323,-1,325,327,-1,-1,-1,329,331,333,335,-1,-1,337,-1,339,341,-1,-1,-1,-1,-1,-1,-1,343,345,347,349,351,-1,-1,-1,353,-1,-1,-1,355,-1,-1,-1,-1,357,359,361,-1,363,365,-1,-1,-1,-1,-1,-1,-1,-1,-1,367,-1,-1,369,371,-1,-1,-1,-1,-1,-1,-1,-1,373,-1,-1,-1,-1,-1,-1,-1,-1,-1,-1,-1,375,-1,-1,-1,-1,-1,377,379,381,-1,383,385,-1,-1,387,389,-1,-1,-1,-1,-1,-1,-1,-1,-1,-1,-1,-1,-1,-1,391,393,395,-1,-1,397,399,401,403,405,-1,-1,-1,-1,-1,-1,-1,-1,-1,-1,-1,-1,-1,-1,-1,407,-1,-1,-1,409,411,413,-1,-1,-1,-1,-1,-1,415,-1,417,419,-1,421,-1,-1,423,425,427,429,-1,-1,-1,-1,431,433,-1,-1,-1,-1,435,437,-1,-1,-1,-1,-1,-1],"loss_changes":[1.3290436E0,1.9844556E-1,1.2460313E0,1.3908389E-1,9.60207E-2,4.3339586E-1,6.014239E-1,3.390479E-2,3.9389394E-2,1.9536966E-2,2.9189348E-2,2.2447848E-1,2.3782606E-1,4.5449376E-1,5.3625405E-3,5.2123275E-3,0E0,0E0,2.3891464E-2,0E0,1.1569448E-3,2.6617646E-2,5.060315E-3,1.4020789E-1,5.2929204E-2,2.6656322E-2,5.7846308E-2,4.341042E-1,2.0175445E-1,0E0,0E0,0E0,0E0,0E0,1.3542943E-2,0E0,0E0,0E0,0E0,7.8862906E-4,0E0,4.859531E-2,2.168014E-2,8.135789E-3,0E0,0E0,7.370184E-4,3.4110304E-3,7.622719E-3,7.301543E-1,5.6032676E-1,4.0442884E-2,9.641778E-3,3.5921512E-3,2.937249E-3,0E0,0E0,4.9374714E-2,2.9578328E-2,0E0,0E0,4.665635E-4,0E0,8.317537E-5,0E0,0E0,2.5425543E-4,0E0,0E0,4.361024E-1,2.3364902E-1,3.5306084E-1,2.7176744E-1,3.2060146E-3,0E0,6.076385E-4,0E0,1.2444519E-4,0E0,3.7664631E-3,4.0179137E-3,8.17509E-3,4.54602E-3,0E0,2.9629707E-2,0E0,0E0,0E0,0E0,0E0,0E0,2.810185E-1,2.2636747E-1,1.02641344E-1,7.000124E-2,3.1966305E-1,1.794852E-1,9.2775375E-2,1.7283428E-1,0E0,0E0,0E0,0E0,0E0,0E0,0E0,4.4034922E-4,5.0073094E-4,0E0,1.9820482E-3,0E0,0E0,6.369781E-5,3.0936956E-2,0E0,2.681893E-1,3.1134915E-1,3.2906834E-2,2.4108553E-1,4.7209464E-2,1.5054375E-2,0E0,7.804431E-3,1.45614E-1,7.17769E-2,1.0412943E-1,1.6906011E-1,2.05646E-2,0E0,1.3159713E-1,1.1835861E-1,0E0,0E0,0E0,0E0,0E0,4.000864E-3,0E0,0E0,1.815021E-2,1.13237766E-4,2.4276614E-1,1.6469316E-1,1.7219158E-1,1.2404287E-1,0E0,9.014798E-3,1.2506372E-1,4.4419646E-2,1.3628788E-2,5.2570337E-3,0E0,0E0,9.137136E-4,0E0,1.0973287E-1,3.395902E-2,2.8439611E-3,1.110598E-2,7.097384E-2,0E0,1.05063096E-1,3.978458E-2,6.2023243E-4,4.0388107E-4,5.65764E-2,6.0353868E-2,3.1522095E-2,5.0906792E-2,0E0,0E0,0E0,1.0307789E-2,0E0,0E0,1.4114392E-1,1.4996698E-1,4.5702424E-2,7.763375E-2,1.7158162E-2,1.3192105E-1,7.277037E-2,1.8839024E-2,0E0,0E0,3.0173456E-2,4.995352E-2,0E0,0E0,0E0,6.0349475E-3,0E0,3.731667E-5,0E0,0E0,9.4394416E-2,4.607171E-3,3.2678246E-4,1.4082578E-3,0E0,0E0,0E0,1.1808546E-3,1.3554156E-2,1.1751464E-2,2.3939945E-2,8.11195E-3,7.0766555E-3,4.5514375E-2,0E0,0E0,0E0,0E0,1.5415443E-2,7.173389E-3,5.1512755E-3,3.251181E-2,9.1002136E-4,0E0,2.1828935E-3,3.3245273E-3,0E0,2.6111603E-3,1.4926481E-1,4.6275876E-2,7.945307E-3,5.9394356E-2,5.251606E-3,2.8705642E-2,0E0,1.2842967E-2,1.4551287E-3,0E0,4.8686713E-2,4.5855153E-2,4.1611105E-2,3.621073E-3,0E0,0E0,4.650564E-3,1.7482936E-3,5.5882684E-4,2.0632178E-2,0E0,6.1917235E-4,0E0,0E0,3.8956255E-2,0E0,0E0,0E0,0E0,0E0,1.5508372E-4,0E0,0E0,0E0,0E0,0E0,0E0,1.180332E-3,0E0,1.7589692E-4,3.0465584E-4,0E0,0E0,0E0,7.962018E-3,2.0107473E-3,2.3440528E-3,2.9473547E-3,0E0,0E0,1.13237766E-4,0E0,4.268542E-3,7.678178E-3,0E0,0E0,0E0,0E0,0E0,0E0,0E0,1.1950731E-3,7.654773E-4,1.0102749E-1,3.4114607E-3,7.3121153E-3,0E0,0E0,0E0,1.4569679E-2,0E0,0E0,0E0,2.3203231E-3,0E0,0E0,0E0,0E0,1.2013823E-2,1.142174E-3,1.5953556E-4,0E0,1.6391277E-3,1.1216388E-3,0E0,0E0,0E0,0E0,0E0,0E0,0E0,0E0,0E0,6.5129995E-4,0E0,0E0,1.7066151E-3,9.158151E-3,0E0,0E0,0E0,0E0,0E0,0E0,0E0,0E0,8.381784E-3,0E0,0E0,0E0,0E0,0E0,0E0,0E0,0E0,0E0,0E0,0E0,4.157911E-3,0E0,0E0,0E0,0E0,0E0,1.0268688E-1,2.9657058E-2,7.8582496E-5,0E0,1.9816682E-3,9.367139E-4,0E0,0E0,5.040339E-4,4.97153E-4,0E0,0E0,0E0,0E0,0E0,0E0,0E0,0E0,0E0,0E0,0E0,0E0,0E0,0E0,7.4139796E-4,5.0334533E-4,5.1185787E-3,0E0,0E0,6.2204537E-4,3.1815853E-2,9.709954E-2,7.68139E-4,8.0022775E-4,0E0,0E0,0E0,0E0,0E0,0E0,0E0,0E0,0E0,0E0,0E0,0E0,0E0,0E0,0E0,1.8663295E-3,0E0,0E0,0E0,9.922124E-3,9.522891E-2,3.1249039E-2,0E0,0E0,0E0,0E0,0E0,0E0,6.5531954E-4,0E0,4.2081475E-2,5.395317E-2,0E0,9.155418E-4,0E0,0E0,1.5117586E-2,1.8383801E-2,5.7935715E-2,1.998818E-2,0E0,0E0,0E0,0E0,9.509571E-3,4.247889E-3,0E0,0E0,0E0,0E0,3.438471E-4,8.1478804E-4,0E0,0E0,0E0,0E0,0E0,0E0],"parents":[2147483647,0,0,1,1,2,2,3,3,4,4,5,5,6,6,7,7,8,8,9,9,10,10,11,11,12,12,13,13,14,14,15,15,18,18,20,20,21,21,22,22,23,23,24,24,25,25,26,26,27,27,28,28,34,34,39,39,41,41,42,42,43,43,46,46,47,47,48,48,49,49,50,50,51,51,52,52,53,53,54,54,57,57,58,58,61,61,63,63,66,66,69,69,70,70,71,71,72,72,73,73,75,75,77,77,79,79,80,80,81,81,82,82,84,84,91,91,92,92,93,93,94,94,95,95,96,96,97,97,98,98,106,106,107,107,109,109,112,112,113,113,115,115,116,116,117,117,118,118,119,119,120,120,122,122,123,123,124,124,125,125,126,126,127,127,129,129,130,130,136,136,139,139,140,140,141,141,142,142,143,143,144,144,146,146,147,147,148,148,149,149,150,150,153,153,155,155,156,156,157,157,158,158,159,159,161,161,162,162,163,163,164,164,165,165,166,166,167,167,168,168,172,172,175,175,176,176,177,177,178,178,179,179,180,180,181,181,182,182,185,185,186,186,190,190,192,192,195,195,196,196,197,197,198,198,202,202,203,203,204,204,205,205,206,206,207,207,208,208,213,213,214,214,215,215,216,216,217,217,219,219,220,220,222,222,223,223,224,224,225,225,226,226,227,227,228,228,230,230,231,231,233,233,234,234,235,235,236,236,239,239,240,240,241,241,242,242,244,244,247,247,253,253,260,260,262,262,263,263,267,267,268,268,269,269,270,270,273,273,275,275,276,276,284,284,285,285,286,286,287,287,288,288,292,292,296,296,301,301,302,302,303,303,305,305,306,306,316,316,319,319,320,320,329,329,341,341,347,347,348,348,349,349,351,351,352,352,355,355,356,356,371,371,372,372,373,373,376,376,377,377,378,378,379,379,380,380,396,396,400,400,401,401,402,402,409,409,411,411,412,412,414,414,417,417,418,418,419,419,420,420,425,425,426,426,431,431,432,432],"right_children":[2,4,6,8,10,12,14,16,18,20,22,24,26,28,30,32,-1,-1,34,-1,36,38,40,42,44,46,48,50,52,-1,-1,-1,-1,-1,54,-1,-1,-1,-1,56,-1,58,60,62,-1,-1,64,66,68,70,72,74,76,78,80,-1,-1,82,84,-1,-1,86,-1,88,-1,-1,90,-1,-1,92,94,96,98,100,-1,102,-1,104,-1,106,108,110,112,-1,114,-1,-1,-1,-1,-1,-1,116,118,120,122,124,126,128,130,-1,-1,-1,-1,-1,-1,-1,132,134,-1,136,-1,-1,138,140,-1,142,144,146,148,150,152,-1,154,156,158,160,162,164,-1,166,168,-1,-1,-1,-1,-1,170,-1,-1,172,174,176,178,180,182,-1,184,186,188,190,192,-1,-1,194,-1,196,198,200,202,204,-1,206,208,210,212,214,216,218,220,-1,-1,-1,222,-1,-1,224,226,228,230,232,234,236,238,-1,-1,240,242,-1,-1,-1,244,-1,246,-1,-1,248,250,252,254,-1,-1,-1,256,258,260,262,264,266,268,-1,-1,-1,-1,270,272,274,276,278,-1,280,282,-1,284,286,288,290,292,294,296,-1,298,300,-1,302,304,306,308,-1,-1,310,312,314,316,-1,318,-1,-1,320,-1,-1,-1,-1,-1,322,-1,-1,-1,-1,-1,-1,324,-1,326,328,-1,-1,-1,330,332,334,336,-1,-1,338,-1,340,342,-1,-1,-1,-1,-1,-1,-1,344,346,348,350,352,-1,-1,-1,354,-1,-1,-1,356,-1,-1,-1,-1,358,360,362,-1,364,366,-1,-1,-1,-1,-1,-1,-1,-1,-1,368,-1,-1,370,372,-1,-1,-1,-1,-1,-1,-1,-1,374,-1,-1,-1,-1,-1,-1,-1,-1,-1,-1,-1,376,-1,-1,-1,-1,-1,378,380,382,-1,384,386,-1,-1,388,390,-1,-1,-1,-1,-1,-1,-1,-1,-1,-1,-1,-1,-1,-1,392,394,396,-1,-1,398,400,402,404,406,-1,-1,-1,-1,-1,-1,-1,-1,-1,-1,-1,-1,-1,-1,-1,408,-1,-1,-1,410,412,414,-1,-1,-1,-1,-1,-1,416,-1,418,420,-1,422,-1,-1,424,426,428,430,-1,-1,-1,-1,432,434,-1,-1,-1,-1,436,438,-1,-1,-1,-1,-1,-1],"split_conditions":[2.0043422E-5,2.2596423E-1,5.8116766E-5,3.1116912E-1,2.995798E-1,2.8276911E-2,6.730442E-2,2.00005E-1,2.515176E-3,7.6264906E-1,7.443721E-1,7.7378326E-3,9.831788E-1,8.956227E-2,9.444196E-1,9.576337E-1,1.4591825E-3,-1.0463403E-3,3.7733552E-1,-2.4864718E-4,3.7322612E-3,3.167617E-2,1.5883612E-2,9.9963E-1,8.593215E-1,3.7660837E-1,8.730175E-2,5.5721648E-2,3.2174253E-1,8.09045E-4,1.8518728E-3,5.2471337E-4,-1.4973908E-4,6.623207E-4,6.1376598E-2,1.5428333E-4,7.512418E-4,2.0554329E-3,5.0547597E-4,1.1607313E-2,8.8897225E-4,2.0136109E-1,9.2745894E-1,9.3027914E-1,-1.3543975E-3,1.2836793E-3,4.260213E-1,1.19268345E-2,8.990709E-1,6.345172E-2,2.6451093E-1,8.819537E-1,1.075142E-2,4.5672646E-1,3.7322612E-3,5.958442E-4,1.4724034E-3,6.1312526E-1,9.378791E-3,4.615244E-4,-8.776537E-4,9.129619E-1,5.371944E-4,1.3204258E-2,3.1638323E-4,-6.086007E-4,9.4403464E-1,-7.1557757E-4,-2.0834312E-3,3.0355502E-2,1.3532464E-1,8.3436914E-2,9.498928E-3,1.0540738E-2,-1.4973908E-4,5.508052E-3,-7.05378E-4,3.1615547E-3,-1.4973908E-4,1.1923335E-2,4.4268253E-1,8.5232264E-1,8.911624E-3,-1.4973908E-4,2.4741732E-2,-2.2366842E-4,1.3349354E-5,9.133141E-5,-7.3277947E-6,2.5181174E-5,-1.4973908E-4,1.5498987E-2,8.323845E-3,3.5346577E-1,3.0177826E-2,2.2840999E-1,9.53316E-1,9.767303E-2,2.1882531E-1,2.0069117E-3,1.0084142E-3,6.385267E-5,-1.4973908E-4,1.0438174E-4,4.0861737E-4,-3.6427885E-4,1.3373603E-2,1.3204258E-2,-7.530741E-4,3.632321E-2,3.1848688E-4,-2.3662791E-4,9.326563E-1,9.397406E-2,5.5171666E-4,4.9883816E-2,9.147032E-4,7.4791904E-3,9.9656975E-1,1.5002859E-2,3.3891273E-1,7.489489E-4,1.1073442E-2,1.8721428E-2,3.316192E-1,1.6551703E-2,6.120642E-1,7.4342203E-1,7.795432E-4,7.117325E-2,1.0208476E-2,2.2794782E-4,-7.3277947E-6,-2.1585941E-4,1.3349354E-5,1.3610532E-3,1.3606452E-2,2.7577518E-4,6.6607E-5,1.5259694E-1,9.511481E-1,1.5570044E-2,1.6213406E-2,9.754419E-2,4.8737213E-1,-9.189699E-4,9.365072E-1,5.084046E-1,6.812497E-1,4.400911E-1,9.432834E-1,2.3487626E-4,1.7927858E-3,1.7425554E-2,-9.008622E-4,1.4496215E-1,7.458877E-1,9.450489E-1,5.1940686E-1,9.5247436E-1,-2.4884252E-3,1.3532464E-1,6.617023E-4,4.6555758E-1,6.5270317E-1,6.4742945E-2,9.450489E-1,2.2394568E-2,8.665114E-2,-5.5083633E-6,7.6372235E-4,1.0438174E-4,2.0125879E-3,4.2568445E-5,2.3487626E-4,1.4506015E-1,9.183543E-1,2.844769E-5,4.4473946E-1,4.4951347E-1,2.7700061E-2,3.9923314E-2,1.0350058E-2,9.541938E-4,5.6757926E-5,1.4593056E-1,1.051213E-2,-3.420469E-4,-2.899889E-3,9.8741E-4,4.641965E-1,-9.189699E-4,9.582648E-1,1.8529892E-5,-3.1328874E-4,5.334937E-1,1.0683748E-2,1.3959477E-2,9.400333E-1,-1.7693304E-3,-9.4612536E-4,3.7593543E-4,1.413849E-2,4.3669108E-1,9.200119E-1,3.5194963E-2,2.4973582E-1,8.644605E-3,4.2036396E-1,-2.5209982E-4,1.8529892E-5,-3.420469E-4,-1.2334728E-3,3.6940753E-1,9.5411676E-1,3.102312E-1,2.5978064E-2,2.7710607E-2,2.5115747E-3,1.2723891E-2,1.4883041E-2,8.878527E-4,9.5800704E-1,8.3072597E-1,1.1396698E-1,4.6020955E-1,6.126142E-1,9.502276E-1,4.2231925E-4,1.8017165E-3,9.152204E-1,8.887422E-1,1.2211328E-3,4.490266E-2,1.0565189E-1,2.470693E-1,4.0557384E-3,3.3939182E-4,-6.618614E-4,9.3879324E-1,9.38062E-1,9.14211E-1,2.0659313E-1,4.7639917E-4,9.012431E-1,-2.9546916E-5,-1.4973908E-4,2.111224E-3,1.3916558E-3,4.271838E-4,1.8073925E-3,-1.4817035E-3,-3.9886503E-4,9.3380576E-1,-1.4973908E-4,-2.9546916E-5,-4.3830066E-4,-1.4072345E-3,-4.60987E-4,8.1179914E-4,9.2723596E-1,1.2886339E-3,9.2026544E-1,9.326563E-1,-8.549674E-4,5.3863495E-4,-2.3316046E-4,5.2638184E-2,1.1265122E-2,4.4268253E-1,1.1105778E-2,7.8663585E-4,1.5500361E-3,9.14211E-1,9.292373E-4,2.674354E-1,1.228886E-2,1.1931096E-3,3.0699163E-4,2.3487626E-4,1.0825901E-3,-5.8426766E-4,4.2568445E-5,4.271838E-4,9.6070504E-1,9.454182E-1,1.0847644E-3,9.320269E-1,2.3663831E-1,1.3583406E-3,1.7878652E-4,-1.222969E-3,9.267354E-1,5.446221E-4,-1.4973908E-4,-1.3934289E-3,3.8587034E-2,-7.266623E-4,3.1316833E-4,-1.4973908E-4,2.3487626E-4,1.9337976E-1,9.366661E-1,1.0272419E-1,-1.1000019E-3,2.825988E-1,9.3060064E-1,-5.206184E-4,5.6757926E-5,5.6757926E-5,7.108954E-4,-8.406779E-4,-1.4973908E-4,-2.4242818E-4,2.5181174E-5,-5.8426766E-4,6.802976E-2,4.2568445E-5,-2.2841066E-4,2.6730037E-1,5.076655E-1,2.5454402E-4,4.2568445E-5,4.2568445E-5,-3.420469E-4,5.6757926E-5,2.3487626E-4,4.2568445E-5,-1.4099269E-4,3.3741063E-1,-4.2134026E-4,-3.8221097E-4,-4.6737987E-6,-3.6136567E-4,5.6757926E-5,6.834942E-4,4.2568445E-5,4.2568445E-5,2.3487626E-4,-4.1363848E-4,-1.1425547E-3,2.912647E-1,-3.2612108E-4,8.176398E-4,1.6885395E-3,1.8877884E-4,6.1231357E-4,6.0181497E-3,2.6362246E-1,9.14211E-1,8.2598865E-4,1.4038983E-2,9.1700816E-1,-2.4973988E-4,6.8030116E-4,1.1485304E-2,9.14725E-1,-3.420469E-4,-1.9273908E-3,-1.996521E-4,-6.607352E-4,1.4458675E-4,3.9447812E-4,1.8222734E-3,8.451028E-4,5.6757926E-5,4.271838E-4,-2.1970368E-3,-6.197861E-4,-7.0112123E-4,-1.996521E-4,7.316512E-3,9.1818625E-1,2.4808687E-1,-2.2841066E-4,4.6905398E-4,1.5639095E-2,1.5641132E-4,7.691782E-2,9.4524086E-1,9.256869E-1,2.1637559E-4,4.2568445E-5,-9.045806E-4,-1.7377763E-4,-2.6360288E-4,4.2568445E-5,-2.4956514E-4,-3.505349E-6,-1.4973908E-4,-6.432787E-4,3.3170998E-4,8.2598865E-4,-1.4973908E-4,5.6757926E-5,-1.5746651E-3,4.5543554E-1,5.6757926E-5,-1.7377763E-4,2.653128E-4,9.4937843E-1,9.488938E-1,3.0086306E-1,-7.266623E-4,-1.4973908E-4,2.3487626E-4,1.004107E-3,-1.3371347E-4,-8.119654E-4,9.3027914E-1,-1.1313019E-3,4.388468E-2,3.4016668E-4,-8.549674E-4,9.463332E-1,-1.5686193E-4,-5.03077E-4,5.5103764E-2,9.503813E-1,2.2179885E-1,6.831678E-1,4.2568445E-5,4.4137338E-4,-1.736709E-3,-2.18077E-4,2.0088314E-1,2.71518E-1,-2.7666925E-3,-5.8426766E-4,-1.7509591E-3,-7.798888E-4,1.1204884E-1,8.122695E-1,-5.120208E-4,-1.4750751E-3,-3.8237896E-4,-7.645368E-5,-1.0115432E-3,-5.050601E-4],"split_indices":[237,50,1047,67,839,1022,244,879,1,53,428,1078,1200,95,965,0,0,0,898,0,802,1054,801,427,51,24,241,223,72,0,0,0,0,0,1028,0,0,0,0,808,0,17,0,0,0,0,14,807,0,1023,41,26,2,14,2,0,0,112,217,0,0,0,0,1,0,0,0,0,0,1057,1029,228,257,802,0,1,0,1,0,801,814,844,2,0,1205,0,0,0,0,0,0,1125,1099,873,276,17,914,1039,642,0,0,0,0,0,0,0,801,801,0,8,0,0,0,1026,0,276,1009,2,540,218,24,0,7,211,28,287,868,1223,0,1036,1088,0,0,0,0,0,801,0,0,79,0,325,218,838,90,0,0,897,26,839,0,0,0,801,0,77,826,165,897,996,0,229,1030,14,829,236,165,13,280,0,0,0,235,0,0,84,1286,232,14,14,1058,244,802,0,0,91,299,0,0,0,20,0,0,0,0,897,7,1,0,0,0,0,801,839,0,6,21,802,28,0,0,0,0,24,966,22,249,806,0,10,1,0,427,155,882,14,27,0,207,0,0,0,0,1044,78,46,1,0,0,0,0,0,17,0,0,0,0,1074,0,0,0,0,0,0,0,0,0,0,0,0,0,0,0,0,0,0,0,813,802,14,1,0,0,0,0,815,801,0,0,0,0,0,0,0,30,0,1030,0,850,0,0,0,0,0,0,0,808,0,0,0,0,41,0,77,0,819,0,0,0,0,0,0,0,0,0,0,8,0,0,15,897,0,0,0,0,0,0,0,0,872,0,0,0,0,0,0,0,0,0,0,0,41,0,0,0,0,0,1022,23,0,0,1,0,0,0,1,0,0,0,0,0,0,0,0,0,0,0,0,0,0,0,1,0,17,0,0,1,203,236,0,0,0,0,0,0,0,0,0,0,0,0,0,0,0,0,0,814,0,0,0,55,121,21,0,0,0,0,0,0,0,0,261,641,0,0,0,0,1020,55,87,74,0,0,0,0,879,821,0,0,0,0,838,875,0,0,0,0,0,0],"split_type":[0,0,0,0,0,0,0,0,0,0,0,0,0,0,0,0,0,0,0,0,0,0,0,0,0,0,0,0,0,0,0,0,0,0,0,0,0,0,0,0,0,0,0,0,0,0,0,0,0,0,0,0,0,0,0,0,0,0,0,0,0,0,0,0,0,0,0,0,0,0,0,0,0,0,0,0,0,0,0,0,0,0,0,0,0,0,0,0,0,0,0,0,0,0,0,0,0,0,0,0,0,0,0,0,0,0,0,0,0,0,0,0,0,0,0,0,0,0,0,0,0,0,0,0,0,0,0,0,0,0,0,0,0,0,0,0,0,0,0,0,0,0,0,0,0,0,0,0,0,0,0,0,0,0,0,0,0,0,0,0,0,0,0,0,0,0,0,0,0,0,0,0,0,0,0,0,0,0,0,0,0,0,0,0,0,0,0,0,0,0,0,0,0,0,0,0,0,0,0,0,0,0,0,0,0,0,0,0,0,0,0,0,0,0,0,0,0,0,0,0,0,0,0,0,0,0,0,0,0,0,0,0,0,0,0,0,0,0,0,0,0,0,0,0,0,0,0,0,0,0,0,0,0,0,0,0,0,0,0,0,0,0,0,0,0,0,0,0,0,0,0,0,0,0,0,0,0,0,0,0,0,0,0,0,0,0,0,0,0,0,0,0,0,0,0,0,0,0,0,0,0,0,0,0,0,0,0,0,0,0,0,0,0,0,0,0,0,0,0,0,0,0,0,0,0,0,0,0,0,0,0,0,0,0,0,0,0,0,0,0,0,0,0,0,0,0,0,0,0,0,0,0,0,0,0,0,0,0,0,0,0,0,0,0,0,0,0,0,0,0,0,0,0,0,0,0,0,0,0,0,0,0,0,0,0,0,0,0,0,0,0,0,0,0,0,0,0,0,0,0,0,0,0,0,0,0,0,0,0,0,0,0,0,0,0,0,0,0,0,0,0,0,0,0,0,0,0,0,0,0,0,0,0,0,0,0,0,0,0],"sum_hessian":[7.91E2,1.03E2,6.88E2,4.3E1,6E1,1.18E2,5.7E2,1.7E1,2.6E1,8E0,5.2E1,9.5E1,2.3E1,5.57E2,1.3E1,5E0,1.2E1,2E0,2.4E1,3E0,5E0,2E1,3.2E1,8.7E1,8E0,9E0,1.4E1,5.36E2,2.1E1,3E0,1E1,4E0,1E0,6E0,1.8E1,1E0,4E0,1.8E1,2E0,2.2E1,1E1,8.3E1,4E0,5E0,3E0,4E0,5E0,7E0,7E0,3.23E2,2.13E2,1.4E1,7E0,7E0,1.1E1,2E0,2E1,1.7E1,6.6E1,1E0,3E0,3E0,2E0,3E0,2E0,5E0,2E0,2E0,5E0,2.79E2,4.4E1,1.3E2,8.3E1,1.3E1,1E0,4E0,3E0,6E0,1E0,4E0,7E0,1.1E1,6E0,1E0,6.5E1,2E0,1E0,2E0,1E0,1E0,1E0,2.33E2,4.6E1,2.8E1,1.6E1,5.4E1,7.6E1,1.6E1,6.7E1,9E0,4E0,3E0,1E0,1E0,5E0,1E0,3E0,6E0,1E0,9E0,2E0,3E0,3E0,6E1,5E0,1.76E2,5.7E1,5E0,4.1E1,1.6E1,1.2E1,3E0,1.3E1,3.6E1,1.8E1,3.3E1,4.3E1,1.3E1,3E0,4.4E1,2.3E1,2E0,1E0,5E0,1E0,7E0,2E0,2E0,1E0,5.8E1,2E0,1.5E2,2.6E1,3.2E1,2.5E1,1E0,4E0,2.1E1,2E1,1.3E1,3E0,1E0,1.1E1,3E0,1E1,3E1,6E0,1.1E1,7E0,2.5E1,8E0,1.5E1,2.8E1,3E0,1E1,2.3E1,2.1E1,1.3E1,1E1,1E0,1E0,1E0,5.7E1,1E0,1E0,1.33E2,1.7E1,1.8E1,8E0,5E0,2.7E1,1.8E1,7E0,2E0,2E0,7E0,1.4E1,1E0,1.9E1,7E0,6E0,1E0,2E0,1E0,2E0,2E1,1E1,3E0,3E0,5E0,6E0,2E0,5E0,2.2E1,3E0,9E0,6E0,3E0,2.5E1,2E0,1E0,1E0,9E0,9E0,1.4E1,5E0,1.6E1,5E0,8E0,7E0,3E0,6E0,5.1E1,1.2E2,1.3E1,6E0,1.1E1,4E0,1.4E1,5E0,3E0,2E0,3E0,1.8E1,9E0,1.5E1,3E0,2E0,5E0,4E0,3E0,2E0,1.2E1,4E0,2E0,1E0,1E0,1.4E1,6E0,1E0,9E0,2E0,1E0,2E0,1E0,1E0,4E0,1.9E1,3E0,1E0,2E0,6E0,3E0,2E0,4E0,1E0,2E0,1.9E1,6E0,4E0,5E0,6E0,8E0,2E0,3E0,7E0,9E0,4E0,1E0,1E0,6E0,2E0,1E0,1E0,5E1,4E0,1.16E2,4E0,9E0,5E0,1E0,6E0,5E0,3E0,1E0,4E0,1E1,1E0,2E0,1E0,1E0,1.3E1,5E0,7E0,2E0,1.2E1,3E0,1E0,2E0,2E0,2E0,2E0,1E0,1E0,1E0,2E0,1E1,1E0,1E0,6E0,8E0,1E0,1E0,1E0,1E0,2E0,1E0,1E0,1E0,1.7E1,2E0,4E0,2E0,2E0,2E0,4E0,1E0,1E0,1E0,3E0,4E0,5E0,4E0,3E0,4.7E1,2E0,2E0,1.12E2,4E0,2E0,2E0,5E0,4E0,3E0,2E0,6E0,4E0,1E0,1.2E1,2E0,3E0,2E0,5E0,9E0,3E0,2E0,1E0,9E0,1E0,4E0,2E0,5E0,3E0,1.6E1,1E0,2E0,3E0,1.4E1,9.8E1,2E0,2E0,1E0,1E0,4E0,1E0,3E0,1E0,5E0,1E0,1E0,3E0,3E0,2E0,1E0,2E0,1.3E1,3E0,2E0,1E0,3E0,1.1E1,9.1E1,7E0,1E0,1E0,1E0,1E0,1E0,2E0,6E0,5E0,4.8E1,4.3E1,4E0,3E0,2E0,4E0,1.9E1,2.9E1,1.6E1,2.7E1,1E0,2E0,1.8E1,1E0,1.9E1,1E1,1.4E1,2E0,2.2E1,5E0,7E0,1.2E1,2E0,8E0,6E0,1E0,8E0,4E0],"tree_param":{"num_deleted":"0","num_feature":"1600","num_nodes":"439","size_leaf_vector":"1"}},{"base_weights":[2.5994744E-4,1.0830213E-1,-1.5330931E-2,3.4379087E-2,1.410157E-1,1.535173E-1,-2.6460184E-2,-3.7710097E-2,8.5688E-2,6.962551E-2,1.5335476E-1,1.6659002E-1,2.0846594E-2,2.5445255E-2,-4.384959E-2,-1.00775E-1,2.218546E-2,1.3518521E-1,1.567053E-2,7.909209E-2,-1.7253429E-4,1.3097571E-1,1.776561E-1,6.0156506E-4,1.7378847E-1,2.964057E-4,-7.164657E-5,5.177629E-2,-1.2302634E-1,-5.015768E-2,1.3387205E-1,-1.2916577E-3,-1.9865393E-4,-2.1677166E-2,5.2838464E-4,7.716457E-4,1.5731636E-3,3.9838534E-2,-2.4499103E-2,2.8093674E-4,8.7303546E-4,1.417061E-1,8.542399E-2,1.833718E-3,2.0239502E-4,1.7960353E-1,4.995495E-4,6.832307E-2,-4.008022E-2,3.860098E-2,-1.6536322E-1,-7.5542115E-2,-1.1409167E-2,-5.877629E-3,1.9259088E-1,-1.2004375E-6,-2.882286E-4,1.14981725E-4,5.1134167E-4,-3.2432954E-4,-3.4877658E-6,5.0179777E-4,1.4724245E-3,2.0924538E-4,9.0870855E-4,9.106121E-4,1.883738E-1,7.811907E-2,-7.73613E-2,4.3669548E-2,-9.105649E-2,9.3772926E-4,-1.2428224E-2,-1.947439E-1,-3.8272433E-2,-1.0709654E-1,-7.095363E-3,-2.9740393E-2,1.3578394E-1,-4.5304565E-4,2.5161982E-2,2.063589E-3,8.2500535E-4,1.1347038E-3,2.0237172E-3,1.01461396E-1,-2.9925269E-3,-2.2927328E-4,-1.0543622E-3,-7.454765E-3,8.605995E-2,-4.3881178E-2,-1.3196305E-3,7.592857E-5,-3.6245733E-4,-1.4849126E-4,-2.0574693E-1,-4.995478E-4,4.2284726E-5,-6.508374E-2,-1.5850227E-1,-4.584781E-2,1.3276823E-1,1.8945243E-2,-7.214511E-2,2.1421397E-3,7.104129E-2,4.187411E-4,5.633235E-5,1.15443446E-1,1.2991005E-2,-5.4564167E-2,1.0048326E-1,-1.6085625E-4,3.6610167E-3,1.0734727E-3,3.6085982E-4,-5.887172E-4,-2.311251E-4,-1.4500166E-3,-2.5445558E-3,-7.3793316E-3,-1.175969E-1,-1.3359718E-1,-2.6066872E-1,-8.963555E-2,2.2169711E-2,-4.4991085E-4,1.5501876E-1,-1.2141108E-1,4.34354E-2,-2.4796748E-1,-5.196772E-2,6.77123E-5,9.885341E-2,6.999517E-2,1.4948624E-1,5.245822E-2,-8.8924787E-4,2.602755E-2,-9.702899E-2,1.3242742E-3,-7.5475574E-3,-7.291138E-6,6.220639E-5,-5.959538E-2,9.746273E-2,-5.1231097E-2,-1.7561843E-1,-1.5801214E-1,-5.157383E-2,-4.6934497E-2,-2.8784972E-1,-3.581091E-2,-1.4688106E-1,-6.523311E-2,6.476264E-2,4.2355656E-5,1.6363922E-1,-1.6574487E-1,8.6927265E-3,6.193465E-2,-8.47191E-2,-3.2435535E-4,-3.0491438E-3,-7.4712336E-3,-1.0861681E-1,3.5693348E-4,1.1180008E-3,1.0718346E-1,9.213096E-3,4.4158287E-2,1.658143E-1,-1.9753714E-4,7.298042E-2,-7.0361695E-3,4.0660273E-2,-1.1527264E-3,-3.1723542E-4,-3.391257E-4,2.2591233E-4,-1.001881E-1,5.5964503E-2,1.8166192E-3,4.022464E-2,4.590824E-2,-7.981038E-2,-9.399898E-2,-2.3250394E-1,-9.1536455E-2,-1.8293713E-1,-1.1332181E-1,6.1647534E-2,4.2284726E-5,-7.4630213E-4,-3.1499052E-3,-1.412501E-3,-7.009673E-2,5.7468466E-2,-1.702304E-1,-8.765958E-2,-1.0186767E-2,-1.0023287E-3,1.1148135E-3,1.6403556E-2,9.271732E-4,1.8546355E-3,-1.8450121E-3,-6.673177E-4,-2.9111543E-4,6.105277E-4,9.325746E-2,-5.373843E-3,-1.1454506E-3,-1.8800363E-4,4.3030795E-2,-9.122621E-2,-1.3238303E-1,-3.3586327E-2,1.3505983E-1,4.5001864E-2,-7.777044E-2,5.1783554E-2,8.1234035E-4,-3.2354056E-4,-2.8921168E-3,1.7582326E-1,1.0192877E-3,3.5225652E-4,4.2284726E-5,-1.4782726E-4,1.0305524E-4,4.567258E-4,1.806885E-3,-1.4322846E-1,1.1475604E-1,-6.091181E-4,9.693524E-2,-1.4130822E-2,8.729681E-3,7.1609736E-4,-4.29583E-2,-1.3893174E-1,-1.5123963E-2,-1.2403659E-3,-1.3936454E-3,-2.596983E-3,-3.5276458E-2,-1.5041938E-1,-1.9252704E-1,-5.0893676E-4,-3.8861435E-2,-1.6095615E-3,1.2017764E-3,1.419996E-2,-8.567455E-2,5.844265E-3,2.1018792E-2,9.906177E-4,-1.8051857E-3,-7.233428E-4,-2.4012326E-4,-9.3321706E-4,-2.2620638E-4,5.642692E-5,-3.8949412E-4,3.3031926E-2,-1.4471064E-2,1.1981198E-1,-7.795738E-2,4.9511626E-2,-1.180988E-3,6.530812E-2,-1.6389036E-1,-3.0086271E-2,-1.4469257E-1,-6.518422E-2,2.8995077E-5,-4.3070223E-2,6.493868E-4,1.4828026E-3,4.3225884E-3,6.8544905E-4,-8.727541E-4,-1.9875288E-4,5.6119665E-4,6.3792766E-5,-3.4883857E-4,3.054568E-4,1.3207354E-3,2.0341126E-3,4.6492707E-2,-6.567357E-2,-3.8916458E-4,-1.6845056E-1,5.185355E-4,1.4896952E-3,1.0698987E-3,2.3331045E-4,-2.316593E-4,5.6379635E-5,1.3282597E-5,1.0754068E-4,-1.6810311E-2,-7.044025E-2,-3.3777207E-4,-1.4912849E-3,1.7176628E-2,-4.2383233E-4,1.0417859E-4,-4.800227E-2,-1.6888976E-3,-6.3338864E-4,-1.2093871E-1,-2.119106E-1,1.038599E-4,-5.0788117E-4,-7.321576E-3,3.0988175E-4,-1.0074821E-1,-1.9034907E-2,1.714488E-2,-1.4028787E-4,3.097844E-4,4.0528774E-3,1.4774839E-2,5.2159576E-4,-9.016342E-2,3.840235E-2,4.0305063E-2,1.43642E-1,-8.395147E-4,-1.500228E-4,-4.1995198E-3,6.788196E-2,1.2101609E-1,1.2673992E-2,-1.8325316E-3,-7.0534606E-4,-5.740247E-2,1.4173662E-2,-1.6710179E-1,-1.07092276E-1,-7.130472E-4,-1.729086E-4,-4.9123622E-2,-3.4821032E-6,-1.2804269E-5,6.6170694E-5,7.8094997E-3,6.388193E-4,-1.9815406E-4,-1.0162402E-3,-1.7678736E-1,-2.586773E-4,-2.4031552E-4,5.642692E-5,-1.6975164E-4,-8.8431244E-4,2.1529377E-4,4.2355656E-5,-1.8761356E-4,-5.462235E-4,-3.395316E-4,-1.268312E-3,-1.5787379E-3,-2.4461513E-3,3.9166807E-5,-1.4899045E-4,-6.6717446E-4,-1.236594E-3,-2.6609024E-4,1.8437206E-5,2.3211776E-4,2.5055408E-5,-5.4809448E-6,6.627411E-5,4.2284726E-5,1.6038418E-4,-1.0506664E-3,-2.2726863E-4,-2.9399096E-5,4.7258782E-4,6.5722376E-2,-7.897168E-3,1.7263739E-1,8.288516E-4,4.3333373E-3,-1.4899045E-4,9.2286244E-4,4.029877E-4,6.0935505E-4,1.4094795E-3,-3.958827E-2,9.766542E-4,-1.3000757E-4,-6.2635966E-4,6.1094164E-5,2.3215324E-4,-4.9619016E-4,-1.7327121E-3,-1.1157148E-3,-3.1150103E-4,-6.046521E-4,-2.550113E-4,1.038599E-4,1.3282597E-5,-3.401351E-4,-1.8515353E-3,3.4823714E-4,8.5013127E-4,5.642692E-5,-2.4258374E-4,1.7853667E-3,4.2074054E-4,7.2291194E-5,-7.291138E-6,-5.8136348E-2,2.3069361E-2,-7.9449866E-4,-2.945826E-4,4.1393934E-5,3.046465E-4],"categories":[],"categories_nodes":[],"categories_segments":[],"categories_sizes":[],"default_left":[0,0,0,0,0,0,0,0,0,0,0,0,0,0,0,0,0,0,0,0,0,0,0,0,0,0,0,0,0,0,0,0,0,0,0,0,0,0,0,0,0,0,0,0,0,0,0,0,0,0,0,0,0,0,0,0,0,0,0,0,0,0,0,0,0,0,0,0,0,0,0,0,0,0,0,0,0,0,0,0,0,0,0,0,0,0,0,0,0,0,0,0,0,0,0,0,0,0,0,0,0,0,0,0,0,0,0,0,0,0,0,0,0,0,0,0,0,0,0,0,0,0,0,0,0,0,0,0,0,0,0,0,0,0,0,0,0,0,0,0,0,0,0,0,0,0,0,0,0,0,0,0,0,0,0,0,0,0,0,0,0,0,0,0,0,0,0,0,0,0,0,0,0,0,0,0,0,0,0,0,0,0,0,0,0,0,0,0,0,0,0,0,0,0,0,0,0,0,0,0,0,0,0,0,0,0,0,0,0,0,0,0,0,0,0,0,0,0,0,0,0,0,0,0,0,0,0,0,0,0,0,0,0,0,0,0,0,0,0,0,0,0,0,0,0,0,0,0,0,0,0,0,0,0,0,0,0,0,0,0,0,0,0,0,0,0,0,0,0,0,0,0,0,0,0,0,0,0,0,0,0,0,0,0,0,0,0,0,0,0,0,0,0,0,0,0,0,0,0,0,0,0,0,0,0,0,0,0,0,0,0,0,0,0,0,0,0,0,0,0,0,0,0,0,0,0,0,0,0,0,0,0,0,0,0,0,0,0,0,0,0,0,0,0,0,0,0,0,0,0,0,0,0,0,0,0,0,0,0,0,0,0,0,0,0,0,0,0,0,0,0,0,0,0,0,0,0,0,0,0,0,0,0,0,0,0,0,0,0,0,0,0,0,0,0,0,0,0,0,0,0,0,0,0,0,0,0,0,0,0,0,0,0,0,0,0,0,0,0,0,0,0,0],"id":1,"left_children":[1,3,5,7,9,11,13,15,17,19,21,23,25,27,29,31,33,35,37,39,-1,41,43,-1,45,-1,-1,47,49,51,53,-1,-1,55,-1,-1,-1,57,59,-1,-1,61,63,-1,-1,65,-1,67,69,71,73,75,77,79,81,-1,-1,-1,-1,-1,-1,-1,-1,-1,-1,-1,83,85,87,89,91,-1,93,95,97,99,101,103,105,-1,107,-1,-1,-1,-1,109,111,-1,-1,113,115,117,-1,-1,-1,-1,119,-1,-1,121,123,125,127,129,131,-1,133,-1,-1,135,137,139,141,-1,143,-1,-1,-1,-1,-1,-1,145,147,149,151,153,155,-1,157,159,161,163,165,-1,167,169,171,173,-1,175,177,-1,179,-1,-1,181,183,185,187,189,191,193,195,197,199,201,203,-1,205,207,209,211,213,-1,-1,215,217,-1,-1,219,221,223,225,-1,227,229,231,-1,-1,-1,-1,233,235,-1,237,239,241,243,245,247,249,251,253,-1,-1,-1,-1,255,257,259,261,263,-1,-1,265,-1,-1,-1,-1,-1,-1,267,269,-1,-1,271,273,275,277,279,281,283,285,-1,-1,287,289,-1,-1,-1,-1,-1,-1,291,293,295,-1,297,299,301,-1,303,305,307,-1,-1,-1,309,311,313,-1,315,-1,-1,317,319,321,323,-1,-1,-1,-1,-1,-1,-1,-1,325,327,329,331,333,-1,335,337,339,341,343,-1,345,-1,-1,347,-1,-1,-1,-1,-1,-1,-1,-1,-1,349,351,-1,353,-1,-1,-1,-1,-1,-1,-1,-1,355,357,-1,-1,359,-1,-1,361,-1,-1,363,365,-1,-1,367,-1,369,371,373,-1,-1,375,377,-1,379,381,383,385,-1,-1,387,389,391,393,-1,-1,395,397,399,401,-1,-1,403,-1,-1,-1,405,-1,-1,-1,407,-1,-1,-1,-1,-1,-1,-1,-1,-1,-1,-1,-1,-1,-1,-1,-1,-1,-1,-1,-1,-1,-1,-1,-1,-1,-1,-1,-1,-1,409,411,413,-1,415,-1,-1,-1,-1,-1,417,-1,-1,-1,-1,-1,-1,-1,-1,-1,-1,-1,-1,-1,-1,-1,-1,-1,-1,-1,-1,-1,-1,-1,419,421,-1,-1,-1,-1],"loss_changes":[1.3357626E0,2.3698056E-1,1.3063163E0,1.2159349E-1,5.010414E-2,7.1105E-2,5.887116E-1,5.5118047E-2,6.3729286E-2,1.1233967E-2,8.274078E-3,1.9425511E-2,1.4440159E-3,6.475132E-1,5.538037E-1,1.3513677E-2,1.1901559E-2,1.9854456E-3,9.713387E-3,2.1538064E-3,0E0,4.513681E-3,1.8782258E-2,0E0,1.6951561E-2,0E0,0E0,2.1552852E-1,1.774531E-1,4.6340156E-1,1.4063293E-1,0E0,0E0,6.1270234E-4,0E0,0E0,0E0,1.332785E-3,7.551084E-4,0E0,0E0,5.78624E-3,1.260452E-3,0E0,0E0,9.2487335E-3,0E0,1.7587107E-1,9.789991E-2,1.8057715E-2,6.722695E-2,6.147822E-1,5.113056E-1,8.482734E-3,1.1639893E-3,0E0,0E0,0E0,0E0,0E0,0E0,0E0,0E0,0E0,0E0,0E0,8.491635E-3,2.1235698E-1,9.808462E-3,2.014618E-2,2.122622E-2,0E0,2.1826178E-3,2.8615117E-2,2.693784E-3,4.1082525E-1,4.9931228E-1,3.4820294E-1,9.141511E-2,0E0,1.0695811E-3,0E0,0E0,0E0,0E0,1.061191E-1,1.442296E-1,0E0,0E0,5.3858355E-4,1.4453307E-3,1.1299951E-3,0E0,0E0,0E0,0E0,7.485807E-3,0E0,0E0,3.294285E-1,1.8654394E-1,2.1642719E-1,8.607924E-2,2.7682403E-1,3.0640098E-1,0E0,2.2567965E-2,0E0,0E0,1.0557562E-1,5.695516E-2,6.412706E-2,3.205809E-2,0E0,3.824678E-5,0E0,0E0,0E0,0E0,0E0,0E0,2.9595354E-1,2.1048963E-1,1.3603759E-1,7.9442024E-2,1.3031366E-1,1.12184174E-1,0E0,2.2703648E-2,7.065673E-2,1.6645887E-1,1.0057479E-1,2.0588467E-1,0E0,3.3688992E-3,7.586548E-2,6.490952E-2,1.6261112E-2,0E0,3.6727781E-3,1.06400475E-2,0E0,3.1499555E-3,0E0,0E0,1.7447902E-1,7.9441935E-2,8.139679E-2,1.1743373E-1,7.438433E-2,1.3282743E-1,4.5665572E-3,1.1211157E-2,8.078419E-2,1.4116108E-2,1.8245041E-2,4.33568E-2,0E0,9.117305E-3,4.4020116E-3,9.695074E-3,1.2699862E-1,1.55413225E-2,0E0,0E0,2.0272596E-1,5.974862E-2,0E0,0E0,3.0323401E-2,5.586824E-2,2.248552E-2,6.1297297E-2,0E0,5.1529966E-3,3.2429496E-4,2.900567E-4,0E0,0E0,0E0,0E0,1.1878613E-1,7.570338E-2,0E0,3.836015E-2,6.063683E-3,4.1964114E-2,3.129311E-2,6.8659782E-3,5.1010564E-2,3.9586663E-2,3.630747E-2,1.7733267E-2,0E0,0E0,0E0,0E0,2.179461E-2,8.530274E-3,1.0427237E-3,6.421581E-4,1.1117486E-3,0E0,0E0,1.1411301E-2,0E0,0E0,0E0,0E0,0E0,0E0,1.19021684E-1,8.3535425E-2,0E0,0E0,1.1539886E-1,7.5037405E-2,1.2902379E-2,3.5851616E-3,3.349334E-3,7.3654223E-3,1.0168329E-3,1.6107783E-3,0E0,0E0,4.274751E-3,1.41716E-2,0E0,0E0,0E0,0E0,0E0,0E0,3.0192116E-2,4.343286E-2,7.3402002E-3,0E0,1.944188E-3,1.3809005E-3,4.5649183E-5,0E0,9.594839E-3,3.5407543E-3,5.130454E-3,0E0,0E0,0E0,6.3150534E-3,2.1699816E-3,2.4326801E-2,0E0,4.051634E-3,0E0,0E0,2.0334232E-3,1.314982E-2,1.1388327E-3,7.193212E-4,0E0,0E0,0E0,0E0,0E0,0E0,0E0,0E0,2.372289E-3,3.9481506E-2,5.6733966E-2,2.1367706E-3,1.2125365E-2,0E0,7.763404E-2,1.5353411E-3,1.4112747E-2,6.417632E-4,5.2586943E-4,0E0,2.0518024E-3,0E0,0E0,5.9896724E-5,0E0,0E0,0E0,0E0,0E0,0E0,0E0,0E0,0E0,3.5371408E-3,4.580768E-3,0E0,1.3257146E-2,0E0,0E0,0E0,0E0,0E0,0E0,0E0,0E0,1.5948499E-3,5.2320994E-3,0E0,0E0,7.77985E-5,0E0,0E0,5.2382797E-4,0E0,0E0,8.1928074E-4,9.097457E-3,0E0,0E0,3.1382748E-4,0E0,1.105994E-3,6.816081E-4,2.0828802E-4,0E0,0E0,3.9168513E-5,1.2138975E-5,0E0,1.6322508E-3,2.3358054E-3,1.1545559E-2,2.9732585E-2,0E0,0E0,4.2975266E-4,2.339311E-3,6.9790184E-3,7.049408E-2,0E0,0E0,8.123163E-4,2.2273883E-4,1.00046396E-4,2.6629865E-4,0E0,0E0,3.3348426E-4,0E0,0E0,0E0,3.630128E-5,0E0,0E0,0E0,1.0424912E-2,0E0,0E0,0E0,0E0,0E0,0E0,0E0,0E0,0E0,0E0,0E0,0E0,0E0,0E0,0E0,0E0,0E0,0E0,0E0,0E0,0E0,0E0,0E0,0E0,0E0,0E0,0E0,0E0,0E0,6.158799E-4,1.0229964E-3,4.8119426E-3,0E0,4.925012E-5,0E0,0E0,0E0,0E0,0E0,1.2962954E-2,0E0,0E0,0E0,0E0,0E0,0E0,0E0,0E0,0E0,0E0,0E0,0E0,0E0,0E0,0E0,0E0,0E0,0E0,0E0,0E0,0E0,0E0,0E0,2.549395E-3,2.9387255E-4,0E0,0E0,0E0,0E0],"parents":[2147483647,0,0,1,1,2,2,3,3,4,4,5,5,6,6,7,7,8,8,9,9,10,10,11,11,12,12,13,13,14,14,15,15,16,16,17,17,18,18,19,19,21,21,22,22,24,24,27,27,28,28,29,29,30,30,33,33,37,37,38,38,41,41,42,42,45,45,47,47,48,48,49,49,50,50,51,51,52,52,53,53,54,54,66,66,67,67,68,68,69,69,70,70,72,72,73,73,74,74,75,75,76,76,77,77,78,78,80,80,85,85,86,86,89,89,90,90,91,91,96,96,99,99,100,100,101,101,102,102,103,103,104,104,106,106,109,109,110,110,111,111,112,112,114,114,121,121,122,122,123,123,124,124,125,125,126,126,128,128,129,129,130,130,131,131,132,132,134,134,135,135,136,136,137,137,139,139,140,140,142,142,145,145,146,146,147,147,148,148,149,149,150,150,151,151,152,152,153,153,154,154,155,155,156,156,158,158,159,159,160,160,161,161,162,162,165,165,166,166,169,169,170,170,171,171,172,172,174,174,175,175,176,176,181,181,182,182,184,184,185,185,186,186,187,187,188,188,189,189,190,190,191,191,192,192,197,197,198,198,199,199,200,200,201,201,204,204,211,211,212,212,215,215,216,216,217,217,218,218,219,219,220,220,221,221,222,222,225,225,226,226,233,233,234,234,235,235,237,237,238,238,239,239,241,241,242,242,243,243,247,247,248,248,249,249,251,251,254,254,255,255,256,256,257,257,266,266,267,267,268,268,269,269,270,270,272,272,273,273,274,274,275,275,276,276,278,278,281,281,291,291,292,292,294,294,303,303,304,304,307,307,310,310,313,313,314,314,317,317,319,319,320,320,321,321,324,324,325,325,327,327,328,328,329,329,330,330,333,333,334,334,335,335,336,336,339,339,340,340,341,341,342,342,345,345,349,349,353,353,383,383,384,384,385,385,387,387,393,393,417,417,418,418],"right_children":[2,4,6,8,10,12,14,16,18,20,22,24,26,28,30,32,34,36,38,40,-1,42,44,-1,46,-1,-1,48,50,52,54,-1,-1,56,-1,-1,-1,58,60,-1,-1,62,64,-1,-1,66,-1,68,70,72,74,76,78,80,82,-1,-1,-1,-1,-1,-1,-1,-1,-1,-1,-1,84,86,88,90,92,-1,94,96,98,100,102,104,106,-1,108,-1,-1,-1,-1,110,112,-1,-1,114,116,118,-1,-1,-1,-1,120,-1,-1,122,124,126,128,130,132,-1,134,-1,-1,136,138,140,142,-1,144,-1,-1,-1,-1,-1,-1,146,148,150,152,154,156,-1,158,160,162,164,166,-1,168,170,172,174,-1,176,178,-1,180,-1,-1,182,184,186,188,190,192,194,196,198,200,202,204,-1,206,208,210,212,214,-1,-1,216,218,-1,-1,220,222,224,226,-1,228,230,232,-1,-1,-1,-1,234,236,-1,238,240,242,244,246,248,250,252,254,-1,-1,-1,-1,256,258,260,262,264,-1,-1,266,-1,-1,-1,-1,-1,-1,268,270,-1,-1,272,274,276,278,280,282,284,286,-1,-1,288,290,-1,-1,-1,-1,-1,-1,292,294,296,-1,298,300,302,-1,304,306,308,-1,-1,-1,310,312,314,-1,316,-1,-1,318,320,322,324,-1,-1,-1,-1,-1,-1,-1,-1,326,328,330,332,334,-1,336,338,340,342,344,-1,346,-1,-1,348,-1,-1,-1,-1,-1,-1,-1,-1,-1,350,352,-1,354,-1,-1,-1,-1,-1,-1,-1,-1,356,358,-1,-1,360,-1,-1,362,-1,-1,364,366,-1,-1,368,-1,370,372,374,-1,-1,376,378,-1,380,382,384,386,-1,-1,388,390,392,394,-1,-1,396,398,400,402,-1,-1,404,-1,-1,-1,406,-1,-1,-1,408,-1,-1,-1,-1,-1,-1,-1,-1,-1,-1,-1,-1,-1,-1,-1,-1,-1,-1,-1,-1,-1,-1,-1,-1,-1,-1,-1,-1,-1,410,412,414,-1,416,-1,-1,-1,-1,-1,418,-1,-1,-1,-1,-1,-1,-1,-1,-1,-1,-1,-1,-1,-1,-1,-1,-1,-1,-1,-1,-1,-1,-1,420,422,-1,-1,-1,-1],"split_conditions":[6.585809E-3,1.9951396E-2,8.554676E-3,6.8494296E-1,1.7020218E-1,8.3216524E-1,1.27629265E-2,1.9951396E-2,8.4327453E-1,2.314462E-2,8.8971475E-4,8.225576E-3,9.5292526E-1,5.1639515E-1,8.8617206E-2,8.027682E-1,1.6491154E-1,7.897343E-1,9.545748E-1,4.5284987E-3,-1.7253429E-4,2.3136066E-2,3.394047E-2,6.0156506E-4,4.510414E-2,2.964057E-4,-7.164657E-5,8.5490316E-1,2.3243776E-2,5.5721648E-2,1.880016E-3,-1.2916577E-3,-1.9865393E-4,9.472753E-1,5.2838464E-4,7.716457E-4,1.5731636E-3,7.156501E-3,1.6625497E-2,2.8093674E-4,8.7303546E-4,7.7912456E-1,3.2694596E-3,1.833718E-3,2.0239502E-4,7.944048E-3,4.995495E-4,4.0281653E-1,2.0962178E-4,7.011741E-3,9.5331675E-1,5.5721648E-2,1.4578721E-1,9.444456E-1,2.7648935E-2,-1.2004375E-6,-2.882286E-4,1.14981725E-4,5.1134167E-4,-3.2432954E-4,-3.4877658E-6,5.0179777E-4,1.4724245E-3,2.0924538E-4,9.0870855E-4,9.106121E-4,3.74411E-2,1.1093356E-31,7.601592E-1,7.601592E-1,8.304248E-3,9.3772926E-4,9.1570544E-1,5.508052E-3,6.6044624E-3,1.783122E-2,1.3545448E-1,3.057014E-1,2.0432794E-3,-4.5304565E-4,9.512656E-1,2.063589E-3,8.2500535E-4,1.1347038E-3,2.0237172E-3,9.97462E-1,1.2048931E-2,-2.2927328E-4,-1.0543622E-3,1.00087E-2,9.4753784E-1,2.3243776E-2,-1.3196305E-3,7.592857E-5,-3.6245733E-4,-1.4849126E-4,3.4625924E-1,-4.995478E-4,4.2284726E-5,1.6926352E-2,2.944213E-2,9.298451E-2,7.9302794E-1,3.836013E-1,5.306405E-3,2.1421397E-3,8.473927E-2,4.187411E-4,5.633235E-5,1.8416962E-2,4.1792267E-3,1.7949989E-2,3.055344E-1,-1.6085625E-4,9.3027914E-1,1.0734727E-3,3.6085982E-4,-5.887172E-4,-2.311251E-4,-1.4500166E-3,-2.5445558E-3,8.9876294E-2,2.703289E-1,1.1093356E-31,1.894525E-2,1.6903182E-2,1.710241E-2,-4.4991085E-4,9.14211E-1,1.3282362E-5,7.864226E-2,5.2390665E-1,6.458144E-3,6.77123E-5,2.605961E-1,9.9423625E-2,1.21957266E-4,3.44919E-1,-8.8924787E-4,9.161151E-1,8.3116716E-1,1.3242742E-3,9.152204E-1,-7.291138E-6,6.220639E-5,1.7903075E-2,9.255196E-1,2.1087927E-1,1.4003884E-2,1.0249935E-1,1.2670189E-2,9.3380576E-1,8.682941E-1,1.7936291E-2,1.4155541E-1,5.974918E-1,4.80273E-1,4.2355656E-5,4.814825E-33,2.4808687E-1,9.934195E-3,9.870644E-1,2.9767752E-1,-3.2435535E-4,-3.0491438E-3,2.5821785E-2,1.5398798E-2,3.5693348E-4,1.1180008E-3,8.1810725E-1,6.607167E-1,2.212745E-1,1.7507225E-1,-1.9753714E-4,2.8684562E-1,9.0747154E-1,5.1803626E-3,-1.1527264E-3,-3.1723542E-4,-3.391257E-4,2.2591233E-4,9.312014E-3,6.7575365E-1,1.8166192E-3,2.2276697E-1,7.0361924E-1,1.0766316E-4,2.4585721E-1,1.4450312E-2,2.7368208E-2,1.8005261E-2,6.303599E-3,4.4268253E-1,4.2284726E-5,-7.4630213E-4,-3.1499052E-3,-1.412501E-3,8.6018324E-1,1.9631041E-2,9.543385E-1,9.4403464E-1,9.384624E-1,-1.0023287E-3,1.1148135E-3,2.599652E-1,9.271732E-4,1.8546355E-3,-1.8450121E-3,-6.673177E-4,-2.9111543E-4,6.105277E-4,1.1707365E-3,9.515666E-4,-1.1454506E-3,-1.8800363E-4,1.2325952E-32,2.647912E-2,2.4683297E-2,3.3061814E-1,4.4361106E-1,5.613393E-3,1.6951686E-2,9.497425E-1,8.1234035E-4,-3.2354056E-4,9.4925743E-1,1.8634704E-1,1.0192877E-3,3.5225652E-4,4.2284726E-5,-1.4782726E-4,1.0305524E-4,4.567258E-4,6.9718175E-5,9.66667E-1,2.4742132E-1,-6.091181E-4,1.2510543E-2,3.412272E-2,9.3027914E-1,7.1609736E-4,7.7053666E-4,2.043873E-1,1.1410799E-2,-1.2403659E-3,-1.3936454E-3,-2.596983E-3,1.0136743E-1,7.310142E-1,1.2346137E-3,-5.0893676E-4,9.225771E-1,-1.6095615E-3,1.2017764E-3,4.5502415E-1,1.1837829E-2,8.5355975E-3,9.33469E-1,9.906177E-4,-1.8051857E-3,-7.233428E-4,-2.4012326E-4,-9.3321706E-4,-2.2620638E-4,5.642692E-5,-3.8949412E-4,1.0599742E-2,3.2832047E-1,1.9895792E-1,9.5693064E-1,4.3582606E-1,-1.180988E-3,7.5654995E-1,9.375506E-1,4.1368896E-1,2.9657662E-3,9.357805E-1,2.8995077E-5,1.5639095E-2,6.493868E-4,1.4828026E-3,4.4631243E-1,6.8544905E-4,-8.727541E-4,-1.9875288E-4,5.6119665E-4,6.3792766E-5,-3.4883857E-4,3.054568E-4,1.3207354E-3,2.0341126E-3,9.3027914E-1,9.2026544E-1,-3.8916458E-4,9.6199036E-1,5.185355E-4,1.4896952E-3,1.0698987E-3,2.3331045E-4,-2.316593E-4,5.6379635E-5,1.3282597E-5,1.0754068E-4,9.316272E-1,3.0949786E-3,-3.3777207E-4,-1.4912849E-3,9.14211E-1,-4.2383233E-4,1.0417859E-4,9.384624E-1,-1.6888976E-3,-6.3338864E-4,4.9653477E-3,1.7416904E-2,1.038599E-4,-5.0788117E-4,9.33469E-1,3.0988175E-4,2.688767E-3,9.5501083E-1,9.438998E-1,-1.4028787E-4,3.097844E-4,9.5501083E-1,9.2950404E-1,5.2159576E-4,9.365072E-1,1.9497864E-2,8.340254E-2,1.1473136E-2,-8.395147E-4,-1.500228E-4,2.1118479E-2,2.1087927E-1,8.356795E-1,6.8657804E-1,-1.8325316E-3,-7.0534606E-4,1.9791385E-2,9.454182E-1,1.5745101E-2,7.0762897E-1,-7.130472E-4,-1.729086E-4,2.6439154E-1,-3.4821032E-6,-1.2804269E-5,6.6170694E-5,9.559534E-1,6.388193E-4,-1.9815406E-4,-1.0162402E-3,4.4793137E-3,-2.586773E-4,-2.4031552E-4,5.642692E-5,-1.6975164E-4,-8.8431244E-4,2.1529377E-4,4.2355656E-5,-1.8761356E-4,-5.462235E-4,-3.395316E-4,-1.268312E-3,-1.5787379E-3,-2.4461513E-3,3.9166807E-5,-1.4899045E-4,-6.6717446E-4,-1.236594E-3,-2.6609024E-4,1.8437206E-5,2.3211776E-4,2.5055408E-5,-5.4809448E-6,6.627411E-5,4.2284726E-5,1.6038418E-4,-1.0506664E-3,-2.2726863E-4,-2.9399096E-5,4.7258782E-4,9.3960243E-1,9.346169E-1,2.5741234E-1,8.288516E-4,8.990709E-1,-1.4899045E-4,9.2286244E-4,4.029877E-4,6.0935505E-4,1.4094795E-3,4.8528698E-1,9.766542E-4,-1.3000757E-4,-6.2635966E-4,6.1094164E-5,2.3215324E-4,-4.9619016E-4,-1.7327121E-3,-1.1157148E-3,-3.1150103E-4,-6.046521E-4,-2.550113E-4,1.038599E-4,1.3282597E-5,-3.401351E-4,-1.8515353E-3,3.4823714E-4,8.5013127E-4,5.642692E-5,-2.4258374E-4,1.7853667E-3,4.2074054E-4,7.2291194E-5,-7.291138E-6,1.1591812E-2,9.2624736E-1,-7.9449866E-4,-2.945826E-4,4.1393934E-5,3.046465E-4],"split_indices":[1046,1477,242,105,43,842,217,677,851,801,262,812,800,820,895,29,629,169,55,801,0,219,254,0,1076,0,0,42,242,1023,1038,0,0,0,0,0,0,1,1,0,0,800,801,0,0,1046,0,843,207,801,1228,223,882,0,6,0,0,0,0,0,0,0,0,0,0,0,43,341,826,826,802,0,800,1,1,277,82,1288,274,0,0,0,0,0,0,937,1099,0,0,803,0,242,0,0,0,0,867,0,0,271,1057,38,125,898,1066,0,38,0,0,267,1095,1067,21,0,800,0,0,0,0,0,0,1203,1303,387,257,803,217,0,0,397,236,97,268,0,21,38,203,39,0,0,124,0,0,0,0,1124,989,817,1018,877,1057,0,150,1124,884,912,890,0,1084,17,4,997,22,0,0,267,290,0,0,1305,893,17,879,0,22,0,4,0,0,0,0,279,27,0,50,49,1002,19,218,254,4,11,14,0,0,0,0,924,4,800,0,0,0,0,17,0,0,0,0,0,0,1038,913,0,0,366,1067,1099,822,1217,4,1,0,0,0,0,866,0,0,0,0,0,0,1005,911,19,0,4,8,0,0,1030,19,801,0,0,0,77,827,1050,0,0,0,0,14,801,805,0,0,0,0,0,0,0,0,0,25,22,79,0,14,0,130,0,482,273,0,0,1,0,0,814,0,0,0,0,0,0,0,0,0,800,0,0,800,0,0,0,0,0,0,0,0,0,1,0,0,0,0,0,0,0,0,1,222,0,0,0,0,1053,0,0,0,0,0,0,0,0,12,245,801,0,0,4,17,441,849,0,0,8,0,803,849,0,0,841,0,0,0,0,0,0,0,4,0,0,0,0,0,0,0,0,0,0,0,0,0,0,0,0,0,0,0,0,0,0,0,0,0,0,0,0,0,0,0,17,0,0,0,0,0,0,0,56,0,0,0,0,0,0,0,0,0,0,0,0,0,0,0,0,0,0,0,0,0,0,0,4,0,0,0,0,0],"split_type":[0,0,0,0,0,0,0,0,0,0,0,0,0,0,0,0,0,0,0,0,0,0,0,0,0,0,0,0,0,0,0,0,0,0,0,0,0,0,0,0,0,0,0,0,0,0,0,0,0,0,0,0,0,0,0,0,0,0,0,0,0,0,0,0,0,0,0,0,0,0,0,0,0,0,0,0,0,0,0,0,0,0,0,0,0,0,0,0,0,0,0,0,0,0,0,0,0,0,0,0,0,0,0,0,0,0,0,0,0,0,0,0,0,0,0,0,0,0,0,0,0,0,0,0,0,0,0,0,0,0,0,0,0,0,0,0,0,0,0,0,0,0,0,0,0,0,0,0,0,0,0,0,0,0,0,0,0,0,0,0,0,0,0,0,0,0,0,0,0,0,0,0,0,0,0,0,0,0,0,0,0,0,0,0,0,0,0,0,0,0,0,0,0,0,0,0,0,0,0,0,0,0,0,0,0,0,0,0,0,0,0,0,0,0,0,0,0,0,0,0,0,0,0,0,0,0,0,0,0,0,0,0,0,0,0,0,0,0,0,0,0,0,0,0,0,0,0,0,0,0,0,0,0,0,0,0,0,0,0,0,0,0,0,0,0,0,0,0,0,0,0,0,0,0,0,0,0,0,0,0,0,0,0,0,0,0,0,0,0,0,0,0,0,0,0,0,0,0,0,0,0,0,0,0,0,0,0,0,0,0,0,0,0,0,0,0,0,0,0,0,0,0,0,0,0,0,0,0,0,0,0,0,0,0,0,0,0,0,0,0,0,0,0,0,0,0,0,0,0,0,0,0,0,0,0,0,0,0,0,0,0,0,0,0,0,0,0,0,0,0,0,0,0,0,0,0,0,0,0,0,0,0,0,0,0,0,0,0,0,0,0,0,0,0,0,0,0,0,0,0,0,0,0,0,0,0,0,0,0,0,0,0,0,0,0,0,0,0,0,0,0,0,0],"sum_hessian":[7.91E2,9.9E1,6.92E2,3.1E1,6.8E1,4.2E1,6.5E2,1.3E1,1.8E1,1.1E1,5.7E1,3.8E1,4E0,1.63E2,4.87E2,6E0,7E0,1E1,8E0,1E1,1E0,3.3E1,2.4E1,3E0,3.5E1,3E0,1E0,1.39E2,2.4E1,4.71E2,1.6E1,4E0,2E0,3E0,4E0,4E0,6E0,5E0,3E0,2E0,8E0,2.5E1,8E0,2.3E1,1E0,3.3E1,2E0,1.18E2,2.1E1,5E0,1.9E1,2.84E2,1.87E2,5E0,1.1E1,1E0,2E0,2E0,3E0,2E0,1E0,2E0,2.3E1,1E0,7E0,4E0,2.9E1,1.11E2,7E0,8E0,1.3E1,2E0,3E0,1.5E1,4E0,1.94E2,9E1,1.67E2,2E1,2E0,3E0,9E0,2E0,6E0,2.3E1,8.6E1,2.5E1,3E0,4E0,4E0,4E0,7E0,6E0,2E0,1E0,1E0,1.4E1,3E0,1E0,1.08E2,8.6E1,7.1E1,1.9E1,7.8E1,8.9E1,8E0,1.2E1,1E0,2E0,7.4E1,1.2E1,1.7E1,8E0,2E0,2E0,2E0,2E0,3E0,4E0,8E0,6E0,5.2E1,5.6E1,7.1E1,1.5E1,4.3E1,2.8E1,2E0,1.7E1,1.1E1,6.7E1,8E0,8.1E1,4E0,8E0,3.3E1,4.1E1,9E0,3E0,6E0,1.1E1,6E0,2E0,1E0,1E0,3.5E1,1.7E1,2.7E1,2.9E1,5.4E1,1.7E1,2E0,1.3E1,2.3E1,2E1,9E0,1.9E1,1E0,1.6E1,8E0,3E0,5.9E1,8E0,2E0,6E0,4.6E1,3.5E1,2E0,6E0,2E1,1.3E1,6E0,3.5E1,2E0,7E0,2E0,4E0,8E0,3E0,1E0,1E0,2.6E1,9E0,6E0,1.1E1,6E0,2.1E1,1.3E1,1.6E1,1.6E1,3.8E1,1.1E1,6E0,1E0,1E0,1E1,3E0,1.7E1,6E0,1.3E1,7E0,4E0,5E0,9E0,1E1,5E0,1.1E1,6E0,2E0,2E0,1E0,4E1,1.9E1,5E0,3E0,2.9E1,1.7E1,2.6E1,9E0,1.3E1,7E0,4E0,9E0,4E0,2E0,2E0,3.3E1,3E0,4E0,1E0,1E0,1E0,3E0,8E0,1.8E1,6E0,3E0,5E0,6E0,3E0,3E0,1.4E1,7E0,4E0,9E0,5E0,1.1E1,9E0,7E0,3.5E1,3E0,5E0,6E0,2E0,4E0,1.4E1,3E0,4E0,2E0,1.1E1,2E0,1E0,6E0,2E0,2E0,2E0,8E0,8E0,3.2E1,8E0,1.1E1,3E0,2.6E1,7E0,1E1,2.1E1,5E0,2E0,7E0,3E0,1E1,3E0,4E0,3E0,1E0,8E0,1E0,1E0,1E0,1.5E1,1.8E1,5E0,3E0,4E0,1.4E1,3E0,3E0,4E0,1E0,4E0,2E0,1E0,2E0,8E0,6E0,1E0,6E0,2E0,2E0,2E0,7E0,5E0,2E0,9E0,2.6E1,1E0,4E0,2E0,2E0,1.1E1,3E0,2E0,1E0,2E0,2E0,5E0,3E0,3E0,5E0,8E0,2.4E1,7E0,1E0,3E0,8E0,1.2E1,1.4E1,5E0,2E0,6E0,4E0,1.1E1,1E1,4E0,1E0,6E0,1E0,1E0,2E0,2E0,3E0,2E0,1E0,1.3E1,1E0,6E0,2E0,2E0,4E0,1E0,1E0,2E0,5E0,1E0,8E0,1.2E1,1.4E1,1E0,1E0,6E0,5E0,2E0,1E0,1E0,1E0,1E0,1E0,1E0,4E0,2E0,1E0,1E0,4E0,5E0,3E0,1.5E1,9E0,2E0,1E0,3E0,5E0,4E0,8E0,9E0,5E0,1E0,5E0,3E0,1E0,1E0,1E1,9E0,1E0,3E0,3E0,1E0,1E0,1E0,1.2E1,3E0,2E0,2E0,1E0,1.4E1,1E0,1E0,1E0,7E0,2E0,3E0,4E0,1E0,1E0],"tree_param":{"num_deleted":"0","num_feature":"1600","num_nodes":"423","size_leaf_vector":"1"}},{"base_weights":[-2.1393315E-4,1.3350852E-1,-1.1598123E-2,-6.564746E-2,1.4812328E-1,1.3844557E-1,-2.1742871E-2,-1.4744248E-3,-8.338079E-3,1.5521756E-1,4.0461622E-2,-1.0761217E-1,1.5177286E-1,-2.754441E-2,1.1224225E-1,1.7600297E-4,-2.285097E-4,1.7160998E-1,1.0006377E-1,5.913469E-4,-1.7115324E-4,-1.466814E-3,-1.4736861E-4,5.9503675E-2,1.6720392E-1,-3.3289917E-2,1.3452728E-1,1.5906093E-1,-9.3739465E-2,1.0979224E-3,1.8326904E-3,1.1928361E-3,6.105773E-4,7.31662E-2,-1.8067002E-4,1.8577626E-1,1.1148251E-1,3.17074E-2,-4.3770038E-2,1.720557E-1,-8.674668E-2,3.6456503E-2,1.8175898E-1,-4.0980562E-4,-1.3283817E-3,1.7468094E-4,7.9537864E-4,5.847029E-4,1.9362192E-3,1.2584648E-3,5.129296E-4,6.867547E-2,-6.715663E-2,-7.917213E-2,-2.264682E-2,1.1513591E-2,1.8925408E-1,-1.5050202E-4,-1.0562877E-3,9.352863E-4,-3.276779E-4,1.8691973E-1,4.1852414E-4,4.1608874E-2,1.57928E-1,-2.499599E-3,-3.0867087E-2,1.9258868E-2,-9.5316835E-2,6.4568035E-2,-3.576931E-2,-2.469182E-4,4.1962205E-4,9.6448895E-4,2.013852E-3,1.980245E-3,9.577061E-4,-3.842019E-2,6.65781E-2,1.7422481E-1,3.4665883E-2,6.1530665E-2,-8.806085E-2,7.235814E-2,-1.1267922E-1,-8.5762694E-2,-2.4725014E-1,1.00466564E-1,-9.417775E-2,-1.803487E-1,-2.6039317E-2,3.667059E-2,-1.0802237E-1,3.364669E-2,1.1387228E-1,1.8115422E-3,4.5535862E-4,1.03340746E-4,4.166475E-4,9.308815E-4,1.0982432E-3,-5.0811384E-2,-1.2925824E-3,1.4970943E-1,7.291138E-3,-1.5322372E-1,1.9484341E-4,-1.0207081E-1,-1.5460446E-2,-1.00571565E-1,-3.282739E-3,7.741752E-3,1.2897627E-1,-1.4025414E-3,-1.5187263E-3,1.1766669E-3,-2.0344214E-1,-1.4300278E-1,-1.5266838E-2,5.366171E-4,-3.8714807E-3,-3.2120364E-4,-1.319591E-3,6.4286426E-2,-4.903555E-3,1.4309618E-3,7.5243E-2,2.1875024E-2,-2.0323554E-4,1.1550327E-2,-7.027906E-4,1.7251534E-3,3.8990498E-4,-5.78325E-2,4.2660814E-2,-1.7378092E-3,-6.788716E-4,-1.405654E-1,-4.557726E-2,3.886598E-2,-5.753602E-2,-1.475039E-4,-1.1833926E-3,-8.778991E-4,6.1225314E-2,6.204455E-2,1.6093798E-1,4.352653E-4,-3.1042655E-4,-1.0984273E-3,-2.4108829E-1,-6.9799E-2,-2.572536E-3,7.96783E-2,-3.215317E-2,-7.128835E-5,1.3216138E-5,8.195957E-2,-3.863126E-4,1.7542616E-2,-3.9836715E-4,8.892004E-2,1.8248915E-4,6.189525E-5,2.662301E-4,2.3808985E-4,-6.483495E-5,-6.7310955E-4,-9.9593395E-5,-2.1120906E-4,6.4132025E-4,3.89871E-2,-1.5039912E-1,-7.3673114E-2,5.5183552E-2,8.73589E-2,-1.4485188E-2,-2.2313766E-2,-9.4192545E-4,9.7468507E-4,9.675786E-3,1.4479175E-2,7.807167E-2,1.7847372E-3,7.614318E-4,-2.4995012E-3,-7.1804016E-4,-9.888241E-2,8.918991E-2,1.7361708E-1,4.257813E-2,-4.921924E-2,5.267599E-2,3.247766E-4,9.645557E-4,-4.911264E-3,6.59427E-5,3.140667E-2,-1.6033032E-4,2.0819902E-4,9.680008E-4,9.68955E-5,-1.4956742E-4,-1.8656412E-4,8.363491E-4,-1.1695649E-1,-1.8925433E-1,2.5245752E-2,-1.1464783E-1,1.229598E-1,-2.0476064E-2,3.5322935E-4,1.1151589E-3,-7.1335345E-4,3.8270268E-3,-3.7765095E-4,3.7808537E-3,1.3384699E-4,-7.254779E-6,2.0463168E-4,5.6634544E-5,3.0468203E-4,8.8861457E-4,-5.1352486E-2,-1.1958209E-3,1.1731461E-3,1.6470253E-4,9.384857E-2,2.5056957E-3,-6.1521612E-2,7.116647E-2,3.0652327E-3,-7.159325E-2,1.0333009E-1,-5.268421E-2,-6.821543E-5,-5.4535267E-6,6.3473875E-5,3.5149048E-4,-1.3941012E-1,-5.2689366E-2,-2.0757788E-1,-6.9148086E-2,-7.867178E-2,6.0738876E-2,-1.2537144E-1,3.0804196E-2,1.358465E-3,2.2819817E-4,-5.102069E-2,1.5187576E-2,7.077714E-5,-7.838547E-5,-2.4790823E-4,3.1092245E-4,-6.029623E-4,-2.2309998E-4,2.32144E-4,1.0175186E-3,-7.9367106E-4,-2.829571E-4,-2.3257751E-2,9.1214195E-2,-4.0524267E-2,1.3984185E-1,-8.2811E-2,4.655031E-2,1.512817E-1,-2.347124E-2,-8.764084E-2,2.0774554E-2,-2.6228279E-2,-1.5021417E-1,-2.7950197E-2,-1.0136494E-3,-9.671801E-4,-2.2664377E-3,-8.4536534E-4,3.8971008E-5,-1.512742E-4,-9.4810757E-4,2.598691E-2,1.1505809E-3,-8.3000354E-2,-1.5725861E-3,4.20025E-5,4.2006045E-4,-1.482454E-4,-5.814456E-4,5.6027373E-5,2.1971046E-4,5.981723E-5,-4.474464E-4,9.82083E-4,1.8844804E-2,6.3335195E-2,-6.536346E-2,1.8309084E-3,7.043703E-2,-9.327916E-2,4.166675E-2,-2.8682781E-2,1.2656386E-3,-3.3803104E-4,1.6344213E-1,-5.648033E-4,2.3657933E-2,-1.110805E-3,-3.0571132E-4,-1.9363314E-3,5.580905E-4,-3.7775934E-4,4.207343E-5,-4.957632E-2,-1.5991944E-3,4.5756996E-4,-4.019032E-4,3.3431986E-4,-1.3064324E-4,-9.305738E-4,-1.1753122E-2,4.1905045E-5,2.40767E-4,1.0087049E-1,-4.5358896E-4,4.7842372E-2,-8.516576E-2,4.8997998E-5,8.054327E-4,-1.08257204E-1,-9.878334E-3,-1.9605342E-2,1.3847622E-3,2.2814274E-3,-1.0723402E-3,1.1120533E-3,1.9411105E-3,-1.27401945E-5,3.2393256E-4,6.750484E-5,-1.399839E-4,3.5806684E-4,-8.997288E-4,-7.492483E-5,5.6050816E-5,-1.4704466E-4,-2.925217E-5,2.4015098E-4,1.096772E-3,-3.4648178E-6,5.7549437E-4,-1.02773376E-1,-1.0114904E-2,-1.5667924E-1,-7.107286E-2,3.49399E-2,-7.0268616E-2,1.5731663E-2,-5.0041012E-2,1.4685075E-2,-7.591665E-3,-6.1355375E-2,-1.2629502E-1,-5.245988E-4,1.7315065E-2,-9.090862E-2,-2.0133975E-1,-8.563741E-2,1.28834415E-2,7.887864E-2,-1.4363272E-3,-8.941337E-4,-8.556227E-3,2.3060381E-4,5.6019624E-5,-1.8518924E-4,-7.2303636E-4,4.494041E-5,1.753357E-4,-3.109773E-6,-1.4716863E-4,-2.1142482E-4,-7.37924E-2,-2.2593826E-4,-1.320884E-1,6.632402E-5,3.002286E-4,-1.1919943E-1,6.4873933E-3,-1.11036696E-1,-2.3390756E-3,-5.4379676E-2,-1.2511638E-1,4.5192218E-4,-2.2002023E-2,9.747141E-4,3.3992986E-4,-3.5668354E-4,1.9390155E-2,1.8292367E-5,-1.4663576E-4,-8.227211E-4,-3.2235502E-4,-8.2032516E-4,-1.5078249E-3,-3.8799275E-2,-1.4747958E-1,-3.3697663E-4,2.4958074E-2,-1.2282673E-3,-1.4253228E-4,-2.1062832E-2,-8.185008E-2,-1.3705744E-1,-1.1764566E-2,4.723096E-4,-5.111801E-4,3.6343513E-4,6.065935E-5,-5.033383E-4,3.6694706E-5,-3.3697663E-4,-1.5637781E-3,5.591472E-5,4.152894E-4,-4.0627748E-2,1.1795014E-2,-3.6382325E-2,-9.507633E-2,-1.4196538E-3,-2.6811272E-4,4.20025E-5,-2.1847099E-4,-2.2860919E-4,-5.0269027E-4,3.2075404E-4,-6.3640326E-3,7.818371E-3,-1.0659255E-3,-1.1240469E-3,3.9103656E-4,-1.7053634E-4,2.8837125E-5,5.303499E-4,-2.4932166E-4],"categories":[],"categories_nodes":[],"categories_segments":[],"categories_sizes":[],"default_left":[0,0,0,0,0,0,0,0,0,0,0,0,0,0,0,0,0,0,0,0,0,0,0,0,0,0,0,0,0,0,0,0,0,0,0,0,0,0,0,0,0,0,0,0,0,0,0,0,0,0,0,0,0,0,0,0,0,0,0,0,0,0,0,0,0,0,0,0,0,0,0,0,0,0,0,0,0,0,0,0,0,0,0,0,0,0,0,0,0,0,0,0,0,0,0,0,0,0,0,0,0,0,0,0,0,0,0,0,0,0,0,0,0,0,0,0,0,0,0,0,0,0,0,0,0,0,0,0,0,0,0,0,0,0,0,0,0,0,0,0,0,0,0,0,0,0,0,0,0,0,0,0,0,0,0,0,0,0,0,0,0,0,0,0,0,0,0,0,0,0,0,0,0,0,0,0,0,0,0,0,0,0,0,0,0,0,0,0,0,0,0,0,0,0,0,0,0,0,0,0,0,0,0,0,0,0,0,0,0,0,0,0,0,0,0,0,0,0,0,0,0,0,0,0,0,0,0,0,0,0,0,0,0,0,0,0,0,0,0,0,0,0,0,0,0,0,0,0,0,0,0,0,0,0,0,0,0,0,0,0,0,0,0,0,0,0,0,0,0,0,0,0,0,0,0,0,0,0,0,0,0,0,0,0,0,0,0,0,0,0,0,0,0,0,0,0,0,0,0,0,0,0,0,0,0,0,0,0,0,0,0,0,0,0,0,0,0,0,0,0,0,0,0,0,0,0,0,0,0,0,0,0,0,0,0,0,0,0,0,0,0,0,0,0,0,0,0,0,0,0,0,0,0,0,0,0,0,0,0,0,0,0,0,0,0,0,0,0,0,0,0,0,0,0,0,0,0,0,0,0,0,0,0,0,0,0,0,0,0,0,0,0,0,0,0,0,0,0,0,0,0,0,0,0,0,0,0,0,0,0,0,0,0,0,0,0,0,0,0,0,0,0,0,0,0,0,0,0,0,0,0,0,0,0,0,0,0,0,0,0,0,0,0,0,0],"id":2,"left_children":[1,3,5,7,9,11,13,-1,15,17,19,21,23,25,27,-1,-1,29,31,-1,-1,-1,-1,33,35,37,39,41,43,-1,-1,-1,-1,45,-1,47,49,51,53,55,57,59,61,-1,-1,-1,-1,-1,-1,-1,-1,63,65,67,69,71,73,-1,-1,-1,-1,75,-1,77,79,-1,81,83,85,87,89,-1,-1,-1,-1,-1,-1,91,93,95,97,99,101,103,105,107,109,111,113,115,117,119,121,123,125,-1,-1,-1,-1,127,-1,129,-1,131,133,135,-1,137,139,141,-1,143,145,-1,147,-1,149,151,153,-1,155,-1,-1,157,159,-1,161,163,-1,165,-1,-1,-1,167,169,-1,-1,171,173,175,177,-1,-1,-1,179,181,183,-1,-1,-1,185,187,-1,189,191,-1,-1,193,195,197,-1,199,-1,-1,-1,-1,-1,-1,-1,201,-1,203,205,207,209,211,213,215,-1,-1,217,219,221,-1,-1,-1,-1,223,225,227,229,231,233,-1,-1,235,-1,237,-1,-1,-1,-1,-1,-1,-1,239,241,243,245,247,249,-1,-1,-1,251,-1,253,-1,-1,-1,-1,-1,-1,255,-1,-1,-1,257,-1,259,261,263,265,267,269,-1,-1,-1,-1,271,273,275,277,279,281,283,285,-1,-1,287,289,-1,-1,-1,-1,-1,-1,-1,-1,-1,-1,291,293,295,297,299,301,303,305,307,309,311,313,315,-1,-1,-1,-1,-1,-1,-1,317,-1,319,-1,-1,-1,-1,-1,-1,-1,-1,-1,-1,321,323,325,-1,327,329,331,333,-1,-1,335,-1,337,-1,-1,339,-1,-1,-1,341,-1,343,-1,-1,-1,-1,345,-1,-1,347,-1,349,351,-1,-1,353,355,357,-1,359,-1,-1,-1,-1,-1,-1,-1,-1,-1,-1,-1,-1,-1,-1,-1,-1,-1,361,363,365,367,369,371,373,375,377,379,381,383,-1,385,387,389,391,393,395,397,-1,399,-1,-1,-1,-1,-1,-1,-1,-1,-1,401,-1,403,-1,-1,405,407,409,-1,411,413,-1,415,-1,-1,-1,417,-1,-1,-1,-1,-1,-1,419,421,-1,423,-1,-1,425,427,429,431,-1,-1,-1,-1,-1,-1,-1,-1,-1,-1,433,435,437,439,-1,-1,-1,-1,-1,-1,-1,441,443,-1,-1,-1,-1,-1,-1,-1],"loss_changes":[1.2224505E0,1.9309282E-1,1.1294054E0,2.2208722E-2,3.8782716E-2,1.704588E-1,5.4255176E-1,0E0,1.9079474E-3,3.255391E-2,6.387801E-3,8.724079E-3,5.412233E-2,6.2464666E-1,2.9458016E-1,0E0,0E0,9.42862E-3,3.962159E-3,0E0,0E0,0E0,0E0,9.800386E-3,1.8614411E-2,4.400677E-1,2.059187E-1,6.0162902E-2,6.9330446E-3,0E0,0E0,0E0,0E0,1.0948554E-3,0E0,1.5646517E-2,3.919676E-3,3.3354518E-1,4.1323936E-1,5.3042293E-2,3.8253833E-3,2.2818614E-2,6.617427E-3,0E0,0E0,0E0,0E0,0E0,0E0,0E0,0E0,1.5286916E-1,1.5813062E-1,3.3078766E-1,4.0173167E-1,4.3433374E-3,8.41558E-4,0E0,0E0,0E0,0E0,2.6673079E-4,0E0,1.0646764E-1,2.4091989E-2,0E0,1.2167909E-1,2.1832776E-1,2.3717856E-1,2.7160376E-1,4.2295778E-1,0E0,0E0,0E0,0E0,0E0,0E0,7.1905516E-2,5.8467135E-2,3.343612E-3,8.0318656E-5,2.6237026E-2,1.4916338E-2,1.096348E-1,5.1212013E-2,1.9217992E-1,8.58295E-2,9.945667E-2,3.8211532E-2,1.5470022E-1,3.5817292E-1,5.029739E-3,8.479342E-3,2.9844468E-2,7.295385E-3,0E0,0E0,0E0,0E0,2.6703577E-3,0E0,1.1738084E-2,0E0,1.852402E-2,3.2411408E-2,4.824698E-4,0E0,2.9152668E-1,7.7668115E-2,5.878672E-3,0E0,5.6468703E-2,5.2053034E-2,0E0,6.6708303E-3,0E0,3.6943972E-2,1.827702E-1,4.2422324E-1,0E0,6.0168804E-5,0E0,0E0,1.603324E-2,1.0108228E-2,0E0,5.392894E-3,5.863991E-5,0E0,8.175769E-4,0E0,0E0,0E0,1.5984457E-3,8.298175E-3,0E0,0E0,1.488831E-1,1.654303E-1,4.0072717E-2,2.2429593E-2,0E0,0E0,0E0,1.21351555E-2,7.2552823E-3,1.4662296E-2,0E0,0E0,0E0,5.465746E-5,8.280234E-2,0E0,1.3201347E-1,3.2687753E-1,0E0,0E0,4.757546E-3,1.587334E-4,4.2275013E-3,0E0,1.7410554E-3,0E0,0E0,0E0,0E0,0E0,0E0,0E0,7.2889193E-4,0E0,1.4428612E-2,7.7920675E-2,1.8528712E-1,6.918076E-2,6.117191E-3,8.601421E-3,4.5779473E-3,0E0,0E0,1.640199E-4,9.512057E-5,1.4015995E-3,0E0,0E0,0E0,0E0,7.6331347E-3,4.2034555E-3,4.4006646E-2,9.365943E-2,2.1897456E-1,2.0824705E-1,0E0,0E0,2.1300177E-5,0E0,3.395835E-4,0E0,0E0,0E0,0E0,0E0,0E0,0E0,5.6147933E-2,6.0472727E-2,5.641545E-2,5.3774625E-2,5.933322E-3,8.400208E-3,0E0,0E0,0E0,3.209269E-4,0E0,4.6724635E-3,0E0,0E0,0E0,0E0,0E0,0E0,2.1328405E-4,0E0,0E0,0E0,1.5455931E-3,0E0,1.9047819E-3,4.7553234E-2,3.4550238E-1,1.7746973E-1,1.616393E-1,3.5203017E-2,0E0,0E0,0E0,0E0,3.5190403E-2,1.2821339E-2,3.9375067E-2,7.0737638E-3,2.6679225E-3,1.7774694E-2,2.7480304E-2,7.1760407E-4,0E0,0E0,1.6946066E-4,1.3697584E-4,0E0,0E0,0E0,0E0,0E0,0E0,0E0,0E0,0E0,0E0,3.4089764E-3,8.272469E-3,1.1765034E-1,2.912727E-2,1.6025311E-1,7.586621E-2,4.8288345E-2,1.3781738E-2,8.643389E-3,4.0863873E-3,1.5647765E-3,2.039665E-2,3.4955358E-3,0E0,0E0,0E0,0E0,0E0,0E0,0E0,2.7626827E-3,0E0,9.654313E-3,0E0,0E0,0E0,0E0,0E0,0E0,0E0,0E0,0E0,0E0,1.2911577E-4,4.1294154E-2,8.477704E-2,0E0,4.241701E-3,1.375897E-1,6.203206E-2,1.7270584E-2,0E0,0E0,7.2506666E-3,0E0,9.124244E-4,0E0,0E0,5.136194E-4,0E0,0E0,0E0,1.7018352E-2,0E0,2.0568795E-4,0E0,0E0,0E0,0E0,3.5148812E-5,0E0,0E0,2.1039918E-3,0E0,2.8265743E-3,3.9925918E-2,0E0,0E0,1.5811515E-1,5.1173724E-2,8.315766E-3,0E0,8.4625825E-4,0E0,0E0,0E0,0E0,0E0,0E0,0E0,0E0,0E0,0E0,0E0,0E0,0E0,0E0,0E0,0E0,0E0,1.66066E-2,9.038998E-3,9.9190414E-2,6.8356514E-2,1.7694876E-2,8.68671E-3,1.677674E-4,1.4680717E-3,8.29075E-6,2.0292877E-4,3.9412603E-3,6.027341E-3,0E0,4.7964184E-4,5.0370723E-2,4.1670084E-2,5.1195323E-2,1.1138281E-2,8.594021E-4,5.6821434E-3,0E0,2.1710616E-4,0E0,0E0,0E0,0E0,0E0,0E0,0E0,0E0,0E0,1.6704202E-4,0E0,7.314384E-4,0E0,0E0,2.6110083E-2,4.5522554E-3,7.37796E-3,0E0,2.3902372E-2,2.5458366E-2,0E0,1.2493285E-2,0E0,0E0,0E0,9.089941E-4,0E0,0E0,0E0,0E0,0E0,0E0,2.6339889E-3,4.8550367E-3,0E0,1.0514776E-3,0E0,0E0,9.479259E-3,5.561419E-3,5.933225E-3,5.746606E-4,0E0,0E0,0E0,0E0,0E0,0E0,0E0,0E0,0E0,0E0,3.924584E-4,2.4137644E-3,1.6350083E-2,2.9971756E-2,0E0,0E0,0E0,0E0,0E0,0E0,0E0,4.445966E-4,7.245752E-3,0E0,0E0,0E0,0E0,0E0,0E0,0E0],"parents":[2147483647,0,0,1,1,2,2,3,3,4,4,5,5,6,6,8,8,9,9,10,10,11,11,12,12,13,13,14,14,17,17,18,18,23,23,24,24,25,25,26,26,27,27,28,28,33,33,35,35,36,36,37,37,38,38,39,39,40,40,41,41,42,42,51,51,52,52,53,53,54,54,55,55,56,56,61,61,63,63,64,64,66,66,67,67,68,68,69,69,70,70,77,77,78,78,79,79,80,80,81,81,82,82,83,83,84,84,85,85,86,86,87,87,88,88,89,89,90,90,91,91,92,92,93,93,94,94,99,99,101,101,103,103,104,104,105,105,107,107,108,108,109,109,111,111,112,112,114,114,116,116,117,117,118,118,120,120,123,123,124,124,126,126,127,127,129,129,133,133,134,134,137,137,138,138,139,139,140,140,144,144,145,145,146,146,150,150,151,151,153,153,154,154,157,157,158,158,159,159,161,161,169,169,171,171,172,172,173,173,174,174,175,175,176,176,177,177,180,180,181,181,182,182,187,187,188,188,189,189,190,190,191,191,192,192,195,195,197,197,205,205,206,206,207,207,208,208,209,209,210,210,214,214,216,216,223,223,227,227,229,229,230,230,231,231,232,232,233,233,234,234,239,239,240,240,241,241,242,242,243,243,244,244,245,245,246,246,249,249,250,250,261,261,262,262,263,263,264,264,265,265,266,266,267,267,268,268,269,269,270,270,271,271,272,272,273,273,281,281,283,283,294,294,295,295,296,296,298,298,299,299,300,300,301,301,304,304,306,306,309,309,313,313,315,315,320,320,323,323,325,325,326,326,329,329,330,330,331,331,333,333,351,351,352,352,353,353,354,354,355,355,356,356,357,357,358,358,359,359,360,360,361,361,362,362,364,364,365,365,366,366,367,367,368,368,369,369,370,370,372,372,382,382,384,384,387,387,388,388,389,389,391,391,392,392,394,394,398,398,405,405,406,406,408,408,411,411,412,412,413,413,414,414,425,425,426,426,427,427,428,428,436,436,437,437],"right_children":[2,4,6,8,10,12,14,-1,16,18,20,22,24,26,28,-1,-1,30,32,-1,-1,-1,-1,34,36,38,40,42,44,-1,-1,-1,-1,46,-1,48,50,52,54,56,58,60,62,-1,-1,-1,-1,-1,-1,-1,-1,64,66,68,70,72,74,-1,-1,-1,-1,76,-1,78,80,-1,82,84,86,88,90,-1,-1,-1,-1,-1,-1,92,94,96,98,100,102,104,106,108,110,112,114,116,118,120,122,124,126,-1,-1,-1,-1,128,-1,130,-1,132,134,136,-1,138,140,142,-1,144,146,-1,148,-1,150,152,154,-1,156,-1,-1,158,160,-1,162,164,-1,166,-1,-1,-1,168,170,-1,-1,172,174,176,178,-1,-1,-1,180,182,184,-1,-1,-1,186,188,-1,190,192,-1,-1,194,196,198,-1,200,-1,-1,-1,-1,-1,-1,-1,202,-1,204,206,208,210,212,214,216,-1,-1,218,220,222,-1,-1,-1,-1,224,226,228,230,232,234,-1,-1,236,-1,238,-1,-1,-1,-1,-1,-1,-1,240,242,244,246,248,250,-1,-1,-1,252,-1,254,-1,-1,-1,-1,-1,-1,256,-1,-1,-1,258,-1,260,262,264,266,268,270,-1,-1,-1,-1,272,274,276,278,280,282,284,286,-1,-1,288,290,-1,-1,-1,-1,-1,-1,-1,-1,-1,-1,292,294,296,298,300,302,304,306,308,310,312,314,316,-1,-1,-1,-1,-1,-1,-1,318,-1,320,-1,-1,-1,-1,-1,-1,-1,-1,-1,-1,322,324,326,-1,328,330,332,334,-1,-1,336,-1,338,-1,-1,340,-1,-1,-1,342,-1,344,-1,-1,-1,-1,346,-1,-1,348,-1,350,352,-1,-1,354,356,358,-1,360,-1,-1,-1,-1,-1,-1,-1,-1,-1,-1,-1,-1,-1,-1,-1,-1,-1,362,364,366,368,370,372,374,376,378,380,382,384,-1,386,388,390,392,394,396,398,-1,400,-1,-1,-1,-1,-1,-1,-1,-1,-1,402,-1,404,-1,-1,406,408,410,-1,412,414,-1,416,-1,-1,-1,418,-1,-1,-1,-1,-1,-1,420,422,-1,424,-1,-1,426,428,430,432,-1,-1,-1,-1,-1,-1,-1,-1,-1,-1,434,436,438,440,-1,-1,-1,-1,-1,-1,-1,442,444,-1,-1,-1,-1,-1,-1,-1],"split_conditions":[1.4138668E-3,7.645558E-1,1.4138668E-3,4.765788E-3,1.6334818E-1,2.0062804E-1,6.2075224E-2,-1.4744248E-3,1.729721E-2,8.628004E-1,9.18931E-3,9.665343E-3,1.9005212E-1,6.2075224E-2,7.2238618E-3,1.7600297E-4,-2.285097E-4,6.1562993E-2,6.310625E-1,5.913469E-4,-1.7115324E-4,-1.466814E-3,-1.4736861E-4,6.2234355E-3,8.999677E-1,5.7797213E-5,2.3961596E-2,1.0190411E-2,1.4368339E-2,1.0979224E-3,1.8326904E-3,1.1928361E-3,6.105773E-4,2.0255265E-3,-1.8067002E-4,2.5923565E-1,2.708412E-2,1.8694308E-1,1.1283054E-4,9.956897E-1,8.1680715E-3,1.7796145E-1,3.6912587E-1,-4.0980562E-4,-1.3283817E-3,1.7468094E-4,7.9537864E-4,5.847029E-4,1.9362192E-3,1.2584648E-3,5.129296E-4,1.8452007E-1,9.246697E-2,4.2912915E-2,1.877198E-2,4.3453043E-3,7.0585144E-1,-1.5050202E-4,-1.0562877E-3,9.352863E-4,-3.276779E-4,2.9115438E-1,4.1852414E-4,4.1987352E-2,1.2659486E-1,-2.499599E-3,1.67549E-2,5.668497E-1,1.1858251E-2,1.0334816E-2,1.7142099E-1,-2.469182E-4,4.1962205E-4,9.6448895E-4,2.013852E-3,1.980245E-3,9.577061E-4,7.601592E-1,2.849816E-1,9.430364E-1,5.7394016E-3,6.7151636E-1,3.9819456E-3,2.2258492E-1,1.7788579E-1,6.604884E-2,1.9671139E-1,9.123972E-3,3.9176244E-1,7.0504937E-3,8.315653E-3,8.645185E-1,5.6568244E-3,9.997399E-1,2.4878742E-1,1.8115422E-3,4.5535862E-4,1.03340746E-4,4.166475E-4,8.603603E-3,1.0982432E-3,8.5196964E-2,-1.2925824E-3,1.0647146E-1,9.446692E-4,1.5110926E-2,1.9484341E-4,1.9316183E-2,9.154483E-2,4.2644355E-1,-3.282739E-3,1.1923335E-2,1.6791925E-1,-1.4025414E-3,7.704539E-3,1.1766669E-3,3.0178112E-1,9.6129864E-1,2.436198E-1,5.366171E-4,3.0637858E-3,-3.2120364E-4,-1.319591E-3,3.164348E-2,9.488938E-1,1.4309618E-3,6.202434E-3,3.9819456E-3,-2.0323554E-4,5.2567013E-3,-7.027906E-4,1.7251534E-3,3.8990498E-4,1.390364E-2,7.7627134E-1,-1.7378092E-3,-6.788716E-4,6.603684E-2,7.9992844E-4,4.734303E-2,8.357635E-1,-1.475039E-4,-1.1833926E-3,-8.778991E-4,3.0637858E-3,4.400908E-1,1.6491154E-1,4.352653E-4,-3.1042655E-4,-1.0984273E-3,2.2659336E-1,1.390364E-2,-2.572536E-3,8.480058E-2,2.1039796E-4,-7.128835E-5,1.3216138E-5,7.2039133E-1,1.2059344E-2,1.3604753E-1,-3.9836715E-4,1.2589881E-2,1.8248915E-4,6.189525E-5,2.662301E-4,2.3808985E-4,-6.483495E-5,-6.7310955E-4,-9.9593395E-5,2.5079256E-1,6.4132025E-4,8.945626E-3,5.5959916E-1,2.3012366E-2,4.4777762E-2,2.7654102E-1,1.8174344E-1,6.331123E-1,-9.4192545E-4,9.7468507E-4,1.390364E-2,4.5493185E-3,2.5297022E-1,1.7847372E-3,7.614318E-4,-2.4995012E-3,-7.1804016E-4,9.6769613E-1,1.4675694E-2,2.9931894E-1,8.2710356E-1,1.9844389E-1,1.99932E-1,3.247766E-4,9.645557E-4,5.2567013E-3,6.59427E-5,1.1607313E-2,-1.6033032E-4,2.0819902E-4,9.680008E-4,9.68955E-5,-1.4956742E-4,-1.8656412E-4,8.363491E-4,7.154285E-5,3.4235397E-1,2.018095E-2,7.243645E-2,2.410472E-1,8.391213E-3,3.5322935E-4,1.1151589E-3,-7.1335345E-4,2.4360847E-1,-3.7765095E-4,2.300531E-1,1.3384699E-4,-7.254779E-6,2.0463168E-4,5.6634544E-5,3.0468203E-4,8.8861457E-4,1.3204258E-2,-1.1958209E-3,1.1731461E-3,1.6470253E-4,2.1176815E-2,2.5056957E-3,4.3582606E-1,6.643681E-2,9.7934353E-1,7.6943386E-1,9.0179555E-2,1.5578469E-2,-6.821543E-5,-5.4535267E-6,6.3473875E-5,3.5149048E-4,4.4635595E-3,2.9406613E-1,8.265738E-4,2.7215404E-2,5.457882E-3,4.754943E-1,1.7126548E-1,5.883412E-3,1.358465E-3,2.2819817E-4,1.2029303E-2,1.075142E-2,7.077714E-5,-7.838547E-5,-2.4790823E-4,3.1092245E-4,-6.029623E-4,-2.2309998E-4,2.32144E-4,1.0175186E-3,-7.9367106E-4,-2.829571E-4,8.218242E-3,7.9182595E-1,9.147E-2,2.6193334E-2,3.352211E-2,6.942086E-1,6.213825E-1,2.0416228E-1,3.7222007E-1,8.257578E-2,5.457882E-3,8.667077E-3,6.629734E-1,-1.0136494E-3,-9.671801E-4,-2.2664377E-3,-8.4536534E-4,3.8971008E-5,-1.512742E-4,-9.4810757E-4,3.0502635E-1,1.1505809E-3,1.9583271E-1,-1.5725861E-3,4.20025E-5,4.2006045E-4,-1.482454E-4,-5.814456E-4,5.6027373E-5,2.1971046E-4,5.981723E-5,-4.474464E-4,9.82083E-4,1.075142E-2,4.2633334E-1,1.0803982E-8,1.8309084E-3,9.208645E-3,5.7401016E-2,1.9781017E-1,3.1334943E-1,1.2656386E-3,-3.3803104E-4,9.2339795E-4,-5.648033E-4,4.5403177E-3,-1.110805E-3,-3.0571132E-4,1.11574475E-2,5.580905E-4,-3.7775934E-4,4.207343E-5,4.4163492E-1,-1.5991944E-3,5.186363E-3,-4.019032E-4,3.3431986E-4,-1.3064324E-4,-9.305738E-4,5.883412E-3,4.1905045E-5,2.40767E-4,1.7458223E-2,-4.5358896E-4,1.1726487E-2,3.1027272E-1,4.8997998E-5,8.054327E-4,8.00056E-5,4.5810956E-1,3.102312E-1,1.3847622E-3,1.8562967E-2,-1.0723402E-3,1.1120533E-3,1.9411105E-3,-1.27401945E-5,3.2393256E-4,6.750484E-5,-1.399839E-4,3.5806684E-4,-8.997288E-4,-7.492483E-5,5.6050816E-5,-1.4704466E-4,-2.925217E-5,2.4015098E-4,1.096772E-3,-3.4648178E-6,5.7549437E-4,3.0399952E-4,1.7227873E-2,2.1218485E-1,6.304411E-1,8.4327453E-1,1.15418606E-1,8.135569E-3,1.1552809E-2,8.911624E-3,1.4118988E-2,5.8476394E-1,1.642715E-2,-5.245988E-4,4.1276556E-2,7.428034E-1,1.8740012E-1,5.270229E-1,1.6426498E-2,2.5079256E-1,7.1631867E-1,-8.941337E-4,9.2196455E-3,2.3060381E-4,5.6019624E-5,-1.8518924E-4,-7.2303636E-4,4.494041E-5,1.753357E-4,-3.109773E-6,-1.4716863E-4,-2.1142482E-4,2.5608793E-2,-2.2593826E-4,1.1093356E-31,6.632402E-5,3.002286E-4,2.0808056E-1,2.5919446E-1,4.7372317E-1,-2.3390756E-3,2.0583775E-2,6.9528365E-1,4.5192218E-4,3.1874382E-1,9.747141E-4,3.3992986E-4,-3.5668354E-4,1.4980716E-2,1.8292367E-5,-1.4663576E-4,-8.227211E-4,-3.2235502E-4,-8.2032516E-4,-1.5078249E-3,1.11574475E-2,8.020937E-2,-3.3697663E-4,9.5356675E-3,-1.2282673E-3,-1.4253228E-4,6.628466E-1,3.244527E-2,3.9486763E-1,9.12175E-3,4.723096E-4,-5.111801E-4,3.6343513E-4,6.065935E-5,-5.033383E-4,3.6694706E-5,-3.3697663E-4,-1.5637781E-3,5.591472E-5,4.152894E-4,1.7973257E-2,1.950049E-1,1.7500225E-2,1.28564E-2,-1.4196538E-3,-2.6811272E-4,4.20025E-5,-2.1847099E-4,-2.2860919E-4,-5.0269027E-4,3.2075404E-4,3.8545698E-2,8.644605E-3,-1.0659255E-3,-1.1240469E-3,3.9103656E-4,-1.7053634E-4,2.8837125E-5,5.303499E-4,-2.4932166E-4],"split_indices":[1078,125,278,2,84,50,244,0,8,1286,801,2,841,1044,1014,0,0,236,94,0,0,0,0,2,863,1047,1024,1079,8,0,0,0,0,2,0,821,1096,1427,1001,1244,2,18,41,0,0,0,0,0,0,0,0,866,838,1029,31,2,144,0,0,0,0,881,0,1086,78,0,217,487,294,259,41,0,0,0,0,0,0,26,96,26,2,49,801,17,18,220,41,34,828,2,1079,44,2,1245,488,0,0,0,0,3,0,77,0,78,303,215,0,224,38,14,0,801,66,0,802,0,1288,140,859,0,2,0,0,272,121,0,804,801,0,2,0,0,0,2,53,0,0,877,234,242,51,0,0,0,2,886,1429,0,0,0,15,2,0,1080,340,0,0,58,2,78,0,11,0,0,0,0,0,0,0,15,0,11,1296,1072,1035,23,23,27,0,0,802,2,21,0,0,0,0,445,2,23,124,1599,18,0,0,2,0,8,0,0,0,0,0,0,0,1001,828,224,242,17,2,0,0,0,15,0,823,0,0,0,0,0,0,801,0,0,0,10,0,14,1036,116,930,1028,1125,0,0,0,0,222,17,303,3,2,90,818,2,0,0,3,2,0,0,0,0,0,0,0,0,0,0,2,29,1039,34,1021,599,49,818,822,8,2,34,85,0,0,0,0,0,0,0,21,0,18,0,0,0,0,0,0,0,0,0,0,2,61,313,0,2,808,866,15,0,0,113,0,2,0,0,2,0,0,0,814,0,2,0,0,0,0,2,0,0,8,0,7,821,0,0,605,814,22,0,3,0,0,0,0,0,0,0,0,0,0,0,0,0,0,0,0,0,247,3,799,112,51,78,2,2,2,2,857,803,0,8,71,18,97,803,15,826,0,2,0,0,0,0,0,0,0,0,0,31,0,387,0,0,17,21,14,0,803,874,0,23,0,0,0,7,0,0,0,0,0,0,2,99,0,2,0,0,85,12,822,2,0,0,0,0,0,0,0,0,0,0,34,18,802,802,0,0,0,0,0,0,0,8,2,0,0,0,0,0,0,0],"split_type":[0,0,0,0,0,0,0,0,0,0,0,0,0,0,0,0,0,0,0,0,0,0,0,0,0,0,0,0,0,0,0,0,0,0,0,0,0,0,0,0,0,0,0,0,0,0,0,0,0,0,0,0,0,0,0,0,0,0,0,0,0,0,0,0,0,0,0,0,0,0,0,0,0,0,0,0,0,0,0,0,0,0,0,0,0,0,0,0,0,0,0,0,0,0,0,0,0,0,0,0,0,0,0,0,0,0,0,0,0,0,0,0,0,0,0,0,0,0,0,0,0,0,0,0,0,0,0,0,0,0,0,0,0,0,0,0,0,0,0,0,0,0,0,0,0,0,0,0,0,0,0,0,0,0,0,0,0,0,0,0,0,0,0,0,0,0,0,0,0,0,0,0,0,0,0,0,0,0,0,0,0,0,0,0,0,0,0,0,0,0,0,0,0,0,0,0,0,0,0,0,0,0,0,0,0,0,0,0,0,0,0,0,0,0,0,0,0,0,0,0,0,0,0,0,0,0,0,0,0,0,0,0,0,0,0,0,0,0,0,0,0,0,0,0,0,0,0,0,0,0,0,0,0,0,0,0,0,0,0,0,0,0,0,0,0,0,0,0,0,0,0,0,0,0,0,0,0,0,0,0,0,0,0,0,0,0,0,0,0,0,0,0,0,0,0,0,0,0,0,0,0,0,0,0,0,0,0,0,0,0,0,0,0,0,0,0,0,0,0,0,0,0,0,0,0,0,0,0,0,0,0,0,0,0,0,0,0,0,0,0,0,0,0,0,0,0,0,0,0,0,0,0,0,0,0,0,0,0,0,0,0,0,0,0,0,0,0,0,0,0,0,0,0,0,0,0,0,0,0,0,0,0,0,0,0,0,0,0,0,0,0,0,0,0,0,0,0,0,0,0,0,0,0,0,0,0,0,0,0,0,0,0,0,0,0,0,0,0,0,0,0,0,0,0,0,0,0,0,0,0,0,0,0,0,0,0,0,0,0,0,0,0,0,0,0],"sum_hessian":[8.01E2,6.2E1,7.39E2,4E0,5.8E1,4.6E1,6.93E2,1E0,3E0,5.4E1,4E0,2E0,4.4E1,6.65E2,2.8E1,1E0,2E0,4E1,1.4E1,3E0,1E0,1E0,1E0,7E0,3.7E1,6.43E2,2.2E1,2.3E1,5E0,8E0,3.2E1,8E0,6E0,6E0,1E0,2.6E1,1.1E1,8.9E1,5.54E2,1.9E1,3E0,4E0,1.9E1,3E0,2E0,1E0,5E0,2E0,2.4E1,8E0,3E0,6.5E1,2.4E1,2.06E2,3.48E2,2E0,1.7E1,1E0,2E0,2E0,2E0,1.8E1,1E0,5.1E1,1.4E1,3E0,2.1E1,2.9E1,1.77E2,4.5E1,3.03E2,1E0,1E0,3E0,1.4E1,1.5E1,3E0,1.2E1,3.9E1,1.2E1,2E0,8E0,1.3E1,2.1E1,8E0,1.68E2,9E0,3.7E1,8E0,1.8E1,2.85E2,6E0,6E0,2.4E1,1.5E1,1.1E1,1E0,1E0,1E0,4E0,4E0,8E0,5E0,9E0,1.2E1,6E0,2E0,1.36E2,3.2E1,4E0,5E0,9E0,2.8E1,5E0,3E0,1E0,1.7E1,2.3E1,2.62E2,4E0,2E0,2E0,4E0,1.3E1,1.1E1,7E0,8E0,2E0,2E0,2E0,6E0,7E0,2E0,4E0,8E0,4E0,2E0,8E1,5.6E1,1.4E1,1.8E1,1E0,3E0,3E0,6E0,1E1,1.8E1,1E0,2E0,6E0,1.1E1,1.5E1,8E0,3.9E1,2.23E2,1E0,1E0,1E1,3E0,7E0,4E0,6E0,2E0,1E0,1E0,1E0,1E0,3E0,1E0,3E0,5E0,4E0,7.6E1,4.4E1,1.2E1,7E0,7E0,1E1,8E0,3E0,3E0,3E0,7E0,1.4E1,4E0,1E1,1E0,1.3E1,2E0,1E1,2.9E1,1.86E2,3.7E1,3E0,7E0,2E0,1E0,5E0,2E0,1E0,5E0,2E0,1E0,2E0,2E0,4.3E1,3.3E1,1.3E1,3.1E1,6E0,6E0,3E0,4E0,1E0,6E0,6E0,4E0,2E0,1E0,1E0,2E0,2E0,5E0,5E0,8E0,1E0,1E0,6E0,4E0,6E0,2.3E1,5.6E1,1.3E2,2.5E1,1.2E1,1E0,1E0,1E0,4E0,3.1E1,1.2E1,2.8E1,5E0,3E0,1E1,2.9E1,2E0,5E0,1E0,3E0,3E0,5E0,1E0,2E0,2E0,3E0,2E0,1E0,5E0,3E0,3E0,4E0,1.9E1,4.3E1,1.3E1,1.19E2,1.1E1,1.8E1,7E0,8E0,4E0,3E0,2.8E1,9E0,3E0,5E0,2.3E1,4E0,1E0,1E0,2E0,7E0,3E0,1.4E1,1.5E1,1E0,1E0,1E0,2E0,2E0,1E0,2E0,2E0,1.7E1,2E0,8E0,3.5E1,7E0,6E0,1.1E2,9E0,6E0,5E0,1E0,1.7E1,4E0,3E0,5E0,3E0,3E0,1E0,2E0,1E0,3E0,2.5E1,3E0,6E0,6E0,1E0,1.2E1,2E0,1E0,1E0,6E0,2E0,5E0,3E1,1E0,5E0,9.3E1,1.7E1,6E0,3E0,5E0,1E0,8E0,9E0,1E0,2E0,2E0,1E0,1E0,2E0,1E0,2E0,1E0,1E0,1E0,5E0,1E0,4E0,2.4E1,6E0,3.9E1,5.4E1,1E1,7E0,3E0,3E0,2E0,3E0,1E1,1.4E1,2E0,4E0,1.7E1,2.2E1,4.6E1,8E0,4E0,6E0,5E0,2E0,1E0,2E0,2E0,1E0,1E0,1E0,2E0,1E0,3E0,7E0,1E0,1.3E1,3E0,1E0,1.3E1,4E0,7E0,1.5E1,2.7E1,1.9E1,4E0,4E0,2E0,2E0,2E0,4E0,1E0,1E0,5E0,2E0,5E0,8E0,4E0,9E0,1E0,3E0,6E0,1E0,1.3E1,1.4E1,1.7E1,2E0,1E0,3E0,1E0,3E0,3E0,1E0,1E0,8E0,2E0,1E0,8E0,5E0,4E0,1E1,1.6E1,1E0,1E0,1E0,4E0,4E0,2E0,3E0,3E0,1E0,9E0,1E0,1E0,2E0,1E0,2E0],"tree_param":{"num_deleted":"0","num_feature":"1600","num_nodes":"445","size_leaf_vector":"1"}},{"base_weights":[-2.474181E-3,8.087066E-2,-2.3078267E-2,1.2240796E-1,3.206606E-2,7.4393466E-2,-4.1947637E-2,4.9842127E-2,1.4254293E-1,-2.382716E-2,9.172632E-2,1.0048895E-1,-5.5867724E-2,-2.8782276E-2,-1.1888292E-1,-1.6731342E-2,1.0583236E-1,9.242219E-2,1.6387878E-1,-4.19485E-3,-2.5801659E-3,5.5812795E-2,1.6827406E-1,1.1774104E-1,-6.2111445E-2,9.1596186E-4,-8.002547E-2,-3.479431E-2,1.12275E-1,-4.3680403E-2,-1.7600122E-1,-5.1776778E-2,4.8781008E-2,4.4553E-4,1.1449966E-3,1.09858304E-1,-1.3504893E-2,5.57128E-4,1.6761412E-1,-2.264091E-2,1.1838812E-3,1.0027198E-1,-4.4122436E-3,1.76776E-3,4.1627316E-4,1.3483E-1,4.748544E-2,1.4157941E-2,-1.6098765E-3,-6.6232383E-3,-9.645497E-2,-6.588892E-2,-7.995589E-3,-4.645301E-2,1.5769933E-1,-7.9083554E-2,1.0922985E-1,-1.8836795E-1,5.579998E-2,-1.0537691E-3,-2.5280604E-2,2.187995E-4,6.474209E-4,2.0715802E-4,1.13659784E-1,-2.0188054E-4,3.272295E-5,1.6970642E-1,3.986889E-4,9.352192E-3,-6.672814E-2,6.366979E-2,1.6074236E-3,-3.155925E-2,3.9905418E-2,1.4193778E-1,-5.494207E-3,8.563517E-2,-3.672825E-2,-1.5510246E-2,4.899621E-4,1.7380744E-4,-2.0418146E-4,-6.021148E-4,-1.1891917E-3,-9.378595E-2,-3.398758E-3,1.2514244E-1,-2.282032E-2,-7.858889E-2,4.1045249E-4,1.7947821E-3,1.0757744E-2,-1.11234926E-1,4.7233766E-3,1.5111922E-3,-7.1053207E-4,-2.312282E-1,-1.18374914E-1,4.166335E-5,7.953363E-4,-6.787449E-5,-2.7621744E-4,4.0720383E-4,1.2023218E-3,9.1687794E-4,1.7550607E-1,3.5617974E-2,-2.670798E-2,3.4986556E-4,-8.659613E-2,7.913471E-2,2.9284948E-2,-3.5912675E-4,-5.426407E-6,5.527989E-4,1.12291375E-4,2.4398963E-3,1.4670599E-1,1.8875091E-4,-1.9909003E-4,5.032925E-2,1.436647E-3,2.2884518E-4,-5.322771E-2,-2.1664878E-4,1.4768242E-5,-3.885561E-2,-1.36404E-1,-3.1331383E-2,1.3403401E-1,1.425283E-1,-4.406802E-2,-1.6877407E-1,-1.1029917E-2,-9.4621954E-4,-1.5244841E-4,4.1643143E-4,-2.5506524E-4,-6.53242E-2,-1.5520429E-3,-6.626457E-4,2.1879941E-2,-1.6935561E-3,-2.9457917E-3,4.2449206E-4,-1.3033217E-1,1.8565065E-3,1.1425752E-1,6.311171E-4,1.9440982E-2,-4.6305895E-2,2.7923146E-2,-3.9176814E-2,-1.2748598E-3,9.021861E-4,6.315648E-5,-3.571956E-4,5.446596E-4,-1.2676417E-5,4.9274862E-5,1.5413843E-1,5.660166E-4,1.3295452E-4,5.901098E-4,-1.467663E-4,-5.9196324E-4,7.002732E-3,-1.4542244E-1,-1.5525651E-1,5.0319105E-2,-1.0155862E-1,1.2965773E-2,1.8137456E-3,5.844407E-3,1.7598668E-3,9.307112E-2,-7.025382E-4,4.1517913E-5,-4.307884E-2,-2.2199202E-1,5.5255428E-2,-3.915822E-2,2.1841525E-4,-7.523395E-2,5.6394935E-4,5.721861E-4,-1.5659399E-3,-8.121337E-2,2.9023318E-4,1.2228765E-3,2.586128E-4,-2.0200412E-3,-2.1838113E-4,-5.91972E-4,-1.440972E-5,4.332569E-4,-6.22404E-4,1.2321432E-2,1.8150537E-1,1.3050684E-1,-4.9607005E-2,7.406181E-2,-2.173251E-2,-1.6725601E-3,-1.7449568E-1,-1.8524101E-2,-1.841105E-2,1.7100638E-3,-1.3085654E-1,-2.4268968E-2,-4.3551255E-2,7.204464E-2,4.241834E-4,-5.1938696E-4,3.1369764E-4,1.03297E-3,4.1695534E-5,-5.3362426E-4,-1.3744821E-3,-2.6953714E-3,1.790414E-3,1.0866076E-1,-1.4369129E-2,-1.1106059E-1,-8.022916E-2,-1.2640923E-4,5.7011246E-5,-6.473601E-5,-1.1015646E-3,3.7439662E-5,6.15859E-5,-9.188652E-5,-1.7811358E-4,3.6293507E-4,1.865681E-3,3.75939E-4,7.232728E-2,1.4115107E-1,1.9931981E-2,-8.350371E-2,2.110494E-3,1.9071889E-1,4.1793286E-5,-3.1762896E-4,-2.7339786E-2,-1.9851537E-1,3.8982302E-2,-8.382697E-2,5.7442983E-5,-3.1924798E-4,-1.5696969E-3,-4.7236312E-2,-3.655257E-4,4.293362E-5,-7.67199E-2,3.557269E-2,9.376417E-2,-2.1984883E-2,5.6901403E-2,-4.1173156E-2,2.5551649E-2,1.7071174E-1,-1.9041063E-1,-1.9025332E-3,-1.4020641E-1,2.9715886E-2,-2.5674998E-4,-9.065833E-4,1.9526838E-4,7.787288E-4,7.8776653E-4,1.4891111E-3,6.7353965E-4,-1.5004669E-2,-1.4894512E-3,-5.1910564E-2,-9.052566E-4,8.290332E-2,2.1118557E-3,2.3726135E-4,1.9941092E-2,-1.4430886E-3,-2.0902513E-1,-5.371461E-2,6.805241E-5,5.336952E-4,-1.5051782E-4,-9.725781E-4,-5.514571E-4,-7.799357E-5,-8.9489855E-2,3.8259744E-4,5.2678195E-4,9.0777874E-4,3.637146E-4,1.1308411E-3,5.5689416E-5,-5.2323175E-4,7.882341E-2,-4.975377E-4,-6.793501E-2,4.199468E-2,-4.106995E-2,6.7126974E-2,5.1878273E-2,1.9247048E-3,-5.2041636E-4,-2.047985E-3,6.5483406E-2,-3.6069985E-2,-1.9200961E-1,-8.287802E-2,-3.799522E-4,8.999802E-4,3.4338117E-3,-5.359854E-4,-5.898861E-4,-2.123782E-4,1.9627412E-4,1.0072405E-3,6.090845E-2,-1.6821016E-2,-2.2267552E-1,-9.3361974E-2,-1.921749E-4,-7.0306857E-4,-1.0156824E-1,-5.226647E-4,4.272252E-5,-2.9105842E-5,9.920006E-4,3.0456102E-2,-2.4358034E-2,-9.7573E-2,5.0403684E-4,4.1793286E-5,-5.2818656E-3,-5.7643525E-2,7.4473035E-4,4.179239E-5,4.1719675E-5,6.6389714E-4,1.0006578E-1,-4.1697178E-2,-8.12615E-2,1.2953441E-2,-3.3470363E-4,-2.009431E-1,-1.0733492E-3,-7.6058866E-3,-9.90954E-5,9.247035E-5,2.804603E-4,7.9747854E-4,-2.346392E-4,4.8753023E-5,-4.436202E-4,-2.301104E-1,-2.0608753E-4,-1.0205272E-3,-1.0964979E-3,-2.2498697E-4,3.6244572E-4,3.6511123E-5,-3.6497245E-4,3.9933322E-5,-1.1574891E-3,-5.045984E-4,5.257553E-4,-6.0498324E-4,-9.325296E-4,2.45924E-4,1.3361584E-1,7.876195E-3,5.538247E-4,-7.7346005E-2,9.265283E-4,-9.460943E-2,4.3460645E-2,-8.781415E-2,-2.4538315E-3,-1.3694018E-3,-2.9154102E-4,1.6477624E-2,-2.331888E-1,-5.1948085E-4,1.6195789E-1,2.1866512E-2,-5.380881E-2,5.564896E-2,-9.20559E-4,-2.7047493E-4,-1.239366E-1,-3.2958828E-2,9.7280346E-2,-9.619123E-3,-1.2543973E-3,1.6708374E-2,2.506119E-4,-3.4475327E-6,-2.469472E-3,-1.4556702E-3,9.21386E-4,1.7897047E-3,-6.7901216E-3,4.3234308E-4,-1.4657616E-4,-6.197333E-4,6.7472697E-4,4.177004E-5,-1.3282922E-1,-2.3340224E-4,5.5873394E-3,-6.1289996E-2,6.416867E-4,1.1649482E-3,9.0350833E-4,-4.509737E-2,4.6994805E-4,-2.1932244E-4,-1.4351487E-4,4.166305E-5,-1.5071471E-1,-6.59773E-2,6.7519664E-5,-1.1789798E-6,-1.7051547E-4,-6.582115E-4,-6.11152E-2,-1.7873645E-3,-3.2992332E-4,-1.5676686E-3,-1.949349E-4,-7.137535E-4,-1.7442225E-4,-6.486245E-4,6.6279565E-5,-1.3516664E-4],"categories":[],"categories_nodes":[],"categories_segments":[],"categories_sizes":[],"default_left":[0,0,0,0,0,0,0,0,0,0,0,0,0,0,0,0,0,0,0,0,0,0,0,0,0,0,0,0,0,0,0,0,0,0,0,0,0,0,0,0,0,0,0,0,0,0,0,0,0,0,0,0,0,0,0,0,0,0,0,0,0,0,0,0,0,0,0,0,0,0,0,0,0,0,0,0,0,0,0,0,0,0,0,0,0,0,0,0,0,0,0,0,0,0,0,0,0,0,0,0,0,0,0,0,0,0,0,0,0,0,0,0,0,0,0,0,0,0,0,0,0,0,0,0,0,0,0,0,0,0,0,0,0,0,0,0,0,0,0,0,0,0,0,0,0,0,0,0,0,0,0,0,0,0,0,0,0,0,0,0,0,0,0,0,0,0,0,0,0,0,0,0,0,0,0,0,0,0,0,0,0,0,0,0,0,0,0,0,0,0,0,0,0,0,0,0,0,0,0,0,0,0,0,0,0,0,0,0,0,0,0,0,0,0,0,0,0,0,0,0,0,0,0,0,0,0,0,0,0,0,0,0,0,0,0,0,0,0,0,0,0,0,0,0,0,0,0,0,0,0,0,0,0,0,0,0,0,0,0,0,0,0,0,0,0,0,0,0,0,0,0,0,0,0,0,0,0,0,0,0,0,0,0,0,0,0,0,0,0,0,0,0,0,0,0,0,0,0,0,0,0,0,0,0,0,0,0,0,0,0,0,0,0,0,0,0,0,0,0,0,0,0,0,0,0,0,0,0,0,0,0,0,0,0,0,0,0,0,0,0,0,0,0,0,0,0,0,0,0,0,0,0,0,0,0,0,0,0,0,0,0,0,0,0,0,0,0,0,0,0,0,0,0,0,0,0,0,0,0,0,0,0,0,0,0,0,0,0,0,0,0,0,0,0,0,0,0,0,0,0,0,0,0,0,0,0,0,0,0,0,0,0,0,0,0,0,0,0,0,0,0,0,0,0,0,0,0,0,0,0,0,0,0,0,0,0,0,0,0],"id":3,"left_children":[1,3,5,7,9,11,13,15,17,19,21,23,25,27,29,31,33,35,37,39,-1,41,43,45,47,-1,49,51,53,55,57,59,61,-1,-1,63,65,-1,67,69,-1,71,73,-1,-1,75,77,79,-1,81,83,85,87,89,91,93,95,97,99,-1,101,-1,-1,-1,103,-1,-1,105,-1,107,109,111,-1,113,115,117,119,121,123,125,-1,-1,-1,-1,-1,127,129,131,133,135,-1,-1,137,139,141,-1,-1,143,145,-1,-1,-1,-1,-1,-1,-1,147,149,151,-1,153,155,157,-1,-1,-1,-1,159,161,-1,-1,163,-1,-1,165,-1,-1,167,169,171,173,175,177,179,181,-1,-1,-1,-1,183,-1,-1,185,-1,-1,-1,187,-1,189,-1,191,193,195,197,-1,-1,-1,-1,-1,-1,-1,199,-1,-1,-1,-1,-1,201,203,205,207,209,211,-1,213,-1,215,-1,-1,217,219,221,223,-1,225,227,-1,-1,229,-1,-1,-1,231,-1,-1,-1,-1,-1,233,235,237,239,241,243,-1,245,247,249,-1,251,253,255,257,-1,-1,-1,-1,-1,-1,-1,-1,259,261,263,265,267,-1,-1,-1,-1,-1,-1,-1,-1,-1,-1,-1,269,271,273,275,277,279,-1,-1,281,283,285,287,-1,-1,-1,289,-1,-1,291,293,295,297,299,301,303,305,307,309,311,313,-1,-1,-1,-1,-1,-1,-1,315,-1,317,-1,319,-1,-1,321,-1,323,325,-1,-1,-1,-1,-1,-1,327,-1,-1,329,-1,-1,-1,-1,331,-1,333,335,337,339,341,-1,-1,-1,343,345,347,349,-1,-1,351,-1,-1,-1,-1,-1,353,355,357,359,-1,-1,361,-1,-1,-1,-1,363,365,367,-1,-1,369,371,-1,-1,-1,-1,373,375,377,379,-1,381,-1,383,-1,-1,-1,-1,-1,-1,-1,385,-1,-1,-1,-1,-1,-1,-1,-1,-1,-1,-1,-1,-1,-1,387,389,-1,391,-1,393,395,397,-1,-1,-1,399,401,-1,403,405,407,409,-1,-1,411,413,415,417,-1,419,-1,-1,-1,-1,-1,-1,421,-1,-1,-1,-1,-1,423,-1,425,427,-1,-1,-1,429,-1,-1,-1,-1,431,433,-1,-1,-1,-1,435,437,-1,-1,-1,-1,-1,-1,-1,-1],"loss_changes":[1.3687928E0,3.1637418E-1,1.1783885E0,1.1708999E-1,2.4894625E-1,3.5913408E-1,5.3948236E-1,7.632001E-2,5.54322E-2,1.7822716E-1,8.957574E-2,2.5136513E-1,7.145317E-2,3.9315724E-1,3.2735646E-1,2.548481E-2,7.410869E-4,4.211667E-2,8.843303E-3,8.63438E-2,0E0,7.005887E-2,4.4854283E-3,8.844447E-2,7.01503E-2,0E0,1.8656544E-2,3.6695665E-1,1.443178E-1,1.9811092E-1,1.3664234E-1,7.2773993E-3,3.0092616E-4,0E0,0E0,4.0840656E-3,5.145599E-4,0E0,4.7272444E-3,4.7170132E-2,0E0,2.2965804E-2,1.5696486E-2,0E0,0E0,6.361568E-2,5.7761636E-2,6.9614733E-3,0E0,1.6794137E-3,3.4240633E-3,3.5531247E-1,4.726048E-1,1.7284866E-2,4.6072572E-2,7.8666136E-2,6.360113E-2,9.8625064E-2,3.3450024E-3,0E0,7.2289025E-5,0E0,0E0,0E0,3.7330538E-3,0E0,0E0,2.9124022E-3,0E0,1.9894255E-2,3.1321835E-2,3.5318919E-3,0E0,1.0607392E-3,1.5836693E-3,3.9551377E-2,1.7808983E-3,1.7354898E-2,7.1195606E-3,4.5019173E-4,0E0,0E0,0E0,0E0,0E0,3.2478428E-1,2.4988636E-1,7.688582E-2,3.6812192E-1,2.6199017E-3,0E0,0E0,4.4222814E-3,3.2253355E-2,1.2411049E-2,0E0,0E0,4.810345E-2,4.014674E-2,0E0,0E0,0E0,0E0,0E0,0E0,0E0,2.3989677E-3,4.1102385E-3,1.0928911E-2,0E0,1.8273123E-2,5.080048E-3,1.0129898E-2,0E0,0E0,0E0,0E0,3.391479E-5,3.011775E-2,0E0,0E0,2.1090806E-3,0E0,0E0,2.8167944E-4,0E0,0E0,3.0889797E-1,2.859081E-1,1.693036E-1,6.569418E-2,2.0025402E-2,4.079702E-3,9.746471E-2,3.7506256E-1,0E0,0E0,0E0,0E0,1.2008715E-2,0E0,0E0,5.9939623E-3,0E0,0E0,0E0,9.21163E-3,0E0,1.9263327E-3,0E0,1.2923165E-3,9.1519766E-4,1.4192776E-3,9.081031E-3,0E0,0E0,0E0,0E0,0E0,0E0,0E0,1.0588884E-2,0E0,0E0,0E0,0E0,0E0,1.7450285E-1,4.7676384E-2,1.8617213E-1,6.950724E-2,4.4377208E-2,1.16662346E-1,0E0,1.0656575E-2,0E0,3.7000477E-3,0E0,0E0,3.1377953E-3,7.16871E-3,1.7112446E-1,2.4972177E-1,0E0,2.425149E-3,2.538256E-4,0E0,0E0,2.008386E-2,0E0,0E0,0E0,2.3247743E-4,0E0,0E0,0E0,0E0,0E0,2.813473E-3,9.015083E-3,9.607732E-3,6.0592953E-2,1.7586371E-1,1.1723707E-3,0E0,2.1725476E-1,4.0821094E-2,2.1419611E-3,0E0,2.5339156E-2,2.6128716E-3,4.9968954E-2,3.6780104E-2,0E0,0E0,0E0,0E0,0E0,0E0,0E0,0E0,7.574351E-2,1.503481E-1,2.3226938E-1,1.51876E-1,3.3618882E-3,0E0,0E0,0E0,0E0,0E0,0E0,0E0,0E0,0E0,0E0,0E0,5.29062E-4,8.5407495E-4,1.592151E-2,2.741567E-2,1.12285584E-1,2.2331655E-2,0E0,0E0,5.818168E-2,7.095075E-2,2.414438E-3,3.1546429E-3,0E0,0E0,0E0,1.1295117E-3,0E0,0E0,2.251155E-2,3.5099448E-3,1.1410505E-2,3.6351287E-3,3.6655106E-2,4.2915966E-2,4.1534305E-2,3.397131E-2,3.2778084E-3,2.3260258E-1,7.31805E-2,3.1991884E-2,0E0,0E0,0E0,0E0,0E0,0E0,0E0,4.4537215E-3,0E0,1.5695505E-3,0E0,7.0440285E-3,0E0,0E0,1.3072913E-2,0E0,5.8152914E-2,1.5108036E-3,0E0,0E0,0E0,0E0,0E0,0E0,8.6560845E-5,0E0,0E0,5.097509E-5,0E0,0E0,0E0,0E0,8.805506E-3,0E0,1.5704788E-2,1.3792943E-3,3.254353E-3,3.8505234E-3,2.4921745E-3,0E0,0E0,0E0,1.3019547E-1,1.4948729E-1,1.4519036E-2,2.8638385E-2,0E0,0E0,4.794733E-4,0E0,0E0,0E0,0E0,0E0,2.3982301E-4,8.350264E-4,4.8124313E-2,2.3227818E-3,0E0,0E0,2.6450604E-3,0E0,0E0,0E0,0E0,6.434666E-4,2.5548888E-3,1.0099262E-3,0E0,0E0,1.2764773E-2,1.4006816E-2,0E0,0E0,0E0,0E0,7.936472E-2,3.5430588E-2,9.001467E-2,1.05263E-1,0E0,6.2172413E-3,0E0,3.0751738E-3,0E0,0E0,0E0,0E0,0E0,0E0,0E0,1.0921478E-2,0E0,0E0,0E0,0E0,0E0,0E0,0E0,0E0,0E0,0E0,0E0,0E0,0E0,0E0,5.663544E-2,2.6569309E-2,0E0,2.6893243E-3,0E0,5.5580467E-2,7.521093E-2,3.355766E-2,0E0,0E0,0E0,4.418278E-4,1.3479471E-2,0E0,1.327008E-3,3.3552116E-3,3.7022214E-4,2.76112E-3,0E0,0E0,1.6580194E-2,1.3447142E-2,7.9558045E-4,5.372921E-2,0E0,4.541561E-3,0E0,0E0,0E0,0E0,0E0,0E0,3.083293E-4,0E0,0E0,0E0,0E0,0E0,1.3969839E-2,0E0,4.0662868E-5,2.8080493E-4,0E0,0E0,0E0,7.521821E-3,0E0,0E0,0E0,0E0,5.5149794E-3,1.1418201E-4,0E0,0E0,0E0,0E0,1.7788447E-4,4.844112E-4,0E0,0E0,0E0,0E0,0E0,0E0,0E0,0E0],"parents":[2147483647,0,0,1,1,2,2,3,3,4,4,5,5,6,6,7,7,8,8,9,9,10,10,11,11,12,12,13,13,14,14,15,15,16,16,17,17,18,18,19,19,21,21,22,22,23,23,24,24,26,26,27,27,28,28,29,29,30,30,31,31,32,32,35,35,36,36,38,38,39,39,41,41,42,42,45,45,46,46,47,47,49,49,50,50,51,51,52,52,53,53,54,54,55,55,56,56,57,57,58,58,60,60,64,64,67,67,69,69,70,70,71,71,73,73,74,74,75,75,76,76,77,77,78,78,79,79,85,85,86,86,87,87,88,88,89,89,92,92,93,93,94,94,97,97,98,98,106,106,107,107,108,108,110,110,111,111,112,112,117,117,118,118,121,121,124,124,127,127,128,128,129,129,130,130,131,131,132,132,133,133,134,134,139,139,142,142,146,146,148,148,150,150,151,151,152,152,153,153,161,161,167,167,168,168,169,169,170,170,171,171,172,172,174,174,176,176,179,179,180,180,181,181,182,182,184,184,185,185,188,188,192,192,198,198,199,199,200,200,201,201,202,202,203,203,205,205,206,206,207,207,209,209,210,210,211,211,212,212,221,221,222,222,223,223,224,224,225,225,237,237,238,238,239,239,240,240,241,241,242,242,245,245,246,246,247,247,248,248,252,252,255,255,256,256,257,257,258,258,259,259,260,260,261,261,262,262,263,263,264,264,265,265,266,266,274,274,276,276,278,278,281,281,283,283,284,284,291,291,294,294,299,299,301,301,302,302,303,303,304,304,305,305,309,309,310,310,311,311,312,312,315,315,321,321,322,322,323,323,324,324,327,327,332,332,333,333,334,334,337,337,338,338,343,343,344,344,345,345,346,346,348,348,350,350,358,358,373,373,374,374,376,376,378,378,379,379,380,380,384,384,385,385,387,387,388,388,389,389,390,390,393,393,394,394,395,395,396,396,398,398,405,405,411,411,413,413,414,414,418,418,423,423,424,424,429,429,430,430],"right_children":[2,4,6,8,10,12,14,16,18,20,22,24,26,28,30,32,34,36,38,40,-1,42,44,46,48,-1,50,52,54,56,58,60,62,-1,-1,64,66,-1,68,70,-1,72,74,-1,-1,76,78,80,-1,82,84,86,88,90,92,94,96,98,100,-1,102,-1,-1,-1,104,-1,-1,106,-1,108,110,112,-1,114,116,118,120,122,124,126,-1,-1,-1,-1,-1,128,130,132,134,136,-1,-1,138,140,142,-1,-1,144,146,-1,-1,-1,-1,-1,-1,-1,148,150,152,-1,154,156,158,-1,-1,-1,-1,160,162,-1,-1,164,-1,-1,166,-1,-1,168,170,172,174,176,178,180,182,-1,-1,-1,-1,184,-1,-1,186,-1,-1,-1,188,-1,190,-1,192,194,196,198,-1,-1,-1,-1,-1,-1,-1,200,-1,-1,-1,-1,-1,202,204,206,208,210,212,-1,214,-1,216,-1,-1,218,220,222,224,-1,226,228,-1,-1,230,-1,-1,-1,232,-1,-1,-1,-1,-1,234,236,238,240,242,244,-1,246,248,250,-1,252,254,256,258,-1,-1,-1,-1,-1,-1,-1,-1,260,262,264,266,268,-1,-1,-1,-1,-1,-1,-1,-1,-1,-1,-1,270,272,274,276,278,280,-1,-1,282,284,286,288,-1,-1,-1,290,-1,-1,292,294,296,298,300,302,304,306,308,310,312,314,-1,-1,-1,-1,-1,-1,-1,316,-1,318,-1,320,-1,-1,322,-1,324,326,-1,-1,-1,-1,-1,-1,328,-1,-1,330,-1,-1,-1,-1,332,-1,334,336,338,340,342,-1,-1,-1,344,346,348,350,-1,-1,352,-1,-1,-1,-1,-1,354,356,358,360,-1,-1,362,-1,-1,-1,-1,364,366,368,-1,-1,370,372,-1,-1,-1,-1,374,376,378,380,-1,382,-1,384,-1,-1,-1,-1,-1,-1,-1,386,-1,-1,-1,-1,-1,-1,-1,-1,-1,-1,-1,-1,-1,-1,388,390,-1,392,-1,394,396,398,-1,-1,-1,400,402,-1,404,406,408,410,-1,-1,412,414,416,418,-1,420,-1,-1,-1,-1,-1,-1,422,-1,-1,-1,-1,-1,424,-1,426,428,-1,-1,-1,430,-1,-1,-1,-1,432,434,-1,-1,-1,-1,436,438,-1,-1,-1,-1,-1,-1,-1,-1],"split_conditions":[2.7825965E-5,6.585809E-3,2.7825965E-5,9.090592E-1,1.0801423E-2,9.8159873E-1,2.4369815E-3,9.0627515E-1,4.059648E-1,1.0097036E-1,5.314005E-2,7.7378326E-3,2.457902E-1,6.2075224E-2,2.4679373E-3,1.2325952E-32,3.7322612E-3,1.2325952E-32,7.7912456E-1,1.0445259E-1,-2.5801659E-3,1.0462682E-3,9.692293E-1,4.5613192E-2,1.5596814E-2,9.1596186E-4,5.475382E-1,2.8577E-2,9.849286E-3,5.722714E-1,9.545748E-1,7.771544E-3,9.5292526E-1,4.4553E-4,1.1449966E-3,5.386377E-3,6.837812E-3,5.57128E-4,4.3769065E-1,1.0815757E-1,1.1838812E-3,1.0245949E-1,8.774713E-3,1.76776E-3,4.1627316E-4,5.8116766E-5,7.8382623E-1,9.3027914E-1,-1.6098765E-3,9.348221E-1,1.1680656E-2,5.5721648E-2,2.7766943E-2,9.7164303E-1,6.147994E-1,6.960251E-1,7.514426E-2,9.6357447E-1,9.326563E-1,-1.0537691E-3,9.826688E-3,2.187995E-4,6.474209E-4,2.0715802E-4,2.9542777E-1,-2.0188054E-4,3.272295E-5,5.0523537E-3,3.986889E-4,7.9503566E-1,3.7322612E-3,1.6655967E-1,1.6074236E-3,1.4231997E-2,9.512656E-1,5.61465E-1,2.930205E-3,4.4163492E-1,6.223102E-3,9.129619E-1,4.899621E-4,1.7380744E-4,-2.0418146E-4,-6.021148E-4,-1.1891917E-3,2.3290414E-2,3.299031E-1,6.593726E-1,5.6967986E-1,9.3060064E-1,4.1045249E-4,1.7947821E-3,9.392427E-1,8.303571E-4,2.600432E-2,1.5111922E-3,-7.1053207E-4,1.7202437E-1,7.011741E-3,4.166335E-5,7.953363E-4,-6.787449E-5,-2.7621744E-4,4.0720383E-4,1.2023218E-3,9.1687794E-4,4.881093E-2,8.925525E-2,2.243782E-2,3.4986556E-4,8.511761E-1,9.6119726E-1,9.14211E-1,-3.5912675E-4,-5.426407E-6,5.527989E-4,1.12291375E-4,9.5501083E-1,9.976742E-1,1.8875091E-4,-1.9909003E-4,1.585706E-1,1.436647E-3,2.2884518E-4,9.0916616E-1,-2.1664878E-4,1.4768242E-5,6.9010598E-3,1.2852025E-1,2.4878287E-1,7.943946E-1,1.460585E-2,9.2876136E-1,5.319172E-1,5.243564E-3,-9.4621954E-4,-1.5244841E-4,4.1643143E-4,-2.5506524E-4,1.5066388E-2,-1.5520429E-3,-6.626457E-4,8.4972924E-1,-1.6935561E-3,-2.9457917E-3,4.2449206E-4,7.8812316E-2,1.8565065E-3,2.4730898E-1,6.311171E-4,1.9912394E-2,4.233442E-1,9.3027914E-1,9.6952885E-1,-1.2748598E-3,9.021861E-4,6.315648E-5,-3.571956E-4,5.446596E-4,-1.2676417E-5,4.9274862E-5,4.7094297E-1,5.660166E-4,1.3295452E-4,5.901098E-4,-1.467663E-4,-5.9196324E-4,9.991096E-1,9.788562E-1,5.539643E-2,2.7501225E-1,9.215645E-1,2.4457312E-1,1.8137456E-3,9.18931E-3,1.7598668E-3,2.1176815E-2,-7.025382E-4,4.1517913E-5,9.2026544E-1,2.99603E-1,9.767379E-1,7.6153725E-1,2.1841525E-4,1.2222484E-2,9.1570544E-1,5.721861E-4,-1.5659399E-3,2.584191E-1,2.9023318E-4,1.2228765E-3,2.586128E-4,9.6952885E-1,-2.1838113E-4,-5.91972E-4,-1.440972E-5,4.332569E-4,-6.22404E-4,8.990709E-1,5.885504E-1,4.8722345E-1,9.971098E-1,7.0296857E-4,9.0747154E-1,-1.6725601E-3,5.789005E-1,1.3625028E-2,4.8121014E-3,1.7100638E-3,6.6599375E-1,6.8927824E-1,6.712403E-1,3.003847E-1,4.241834E-4,-5.1938696E-4,3.1369764E-4,1.03297E-3,4.1695534E-5,-5.3362426E-4,-1.3744821E-3,-2.6953714E-3,9.917094E-1,1.8263279E-2,1.5186563E-1,1.5448819E-2,7.057494E-3,-1.2640923E-4,5.7011246E-5,-6.473601E-5,-1.1015646E-3,3.7439662E-5,6.15859E-5,-9.188652E-5,-1.7811358E-4,3.6293507E-4,1.865681E-3,3.75939E-4,2.515176E-3,8.70931E-2,1.9815637E-1,1.2325952E-32,3.5339475E-1,1.0092206E-2,4.1793286E-5,-3.1762896E-4,1.5125059E-2,2.2910345E-2,9.2723596E-1,9.1818625E-1,5.7442983E-5,-3.1924798E-4,-1.5696969E-3,1.0235717E-2,-3.655257E-4,4.293362E-5,4.538718E-2,3.2748592E-1,6.071207E-1,9.3703526E-1,8.5134184E-1,9.9732673E-1,6.034956E-2,3.5063556E-1,8.945626E-3,2.2452171E-1,7.954594E-4,3.28607E-1,-2.5674998E-4,-9.065833E-4,1.9526838E-4,7.787288E-4,7.8776653E-4,1.4891111E-3,6.7353965E-4,9.537033E-1,-1.4894512E-3,9.111138E-1,-9.052566E-4,2.1933036E-1,2.1118557E-3,2.3726135E-4,7.704539E-3,-1.4430886E-3,1.9970795E-4,9.2155015E-1,6.805241E-5,5.336952E-4,-1.5051782E-4,-9.725781E-4,-5.514571E-4,-7.799357E-5,8.134154E-1,3.8259744E-4,5.2678195E-4,9.453713E-1,3.637146E-4,1.1308411E-3,5.5689416E-5,-5.2323175E-4,1.99932E-1,-4.975377E-4,4.6231474E-8,2.6360095E-1,9.385577E-1,9.489311E-1,9.3380576E-1,1.9247048E-3,-5.2041636E-4,-2.047985E-3,6.5754266E-3,1.5486289E-2,4.2644355E-1,2.0069448E-2,-3.799522E-4,8.999802E-4,9.3027914E-1,-5.359854E-4,-5.898861E-4,-2.123782E-4,1.9627412E-4,1.0072405E-3,9.454182E-1,4.373306E-3,3.346179E-1,1.9791385E-2,-1.921749E-4,-7.0306857E-4,1.3226926E-2,-5.226647E-4,4.272252E-5,-2.9105842E-5,9.920006E-4,9.5376277E-1,4.6555758E-1,4.51194E-1,5.0403684E-4,4.1793286E-5,9.4652826E-1,9.4652826E-1,7.4473035E-4,4.179239E-5,4.1719675E-5,6.6389714E-4,5.281196E-1,9.254728E-1,1.7204954E-1,6.9033826E-4,-3.3470363E-4,8.6411446E-1,-1.0733492E-3,2.4878287E-1,-9.90954E-5,9.247035E-5,2.804603E-4,7.9747854E-4,-2.346392E-4,4.8753023E-5,-4.436202E-4,2.9554334E-1,-2.0608753E-4,-1.0205272E-3,-1.0964979E-3,-2.2498697E-4,3.6244572E-4,3.6511123E-5,-3.6497245E-4,3.9933322E-5,-1.1574891E-3,-5.045984E-4,5.257553E-4,-6.0498324E-4,-9.325296E-4,2.45924E-4,9.831193E-1,3.2323062E-1,5.538247E-4,1.3352852E-1,9.265283E-4,3.5899463E-1,1.1870742E-2,1.585361E-2,-2.4538315E-3,-1.3694018E-3,-2.9154102E-4,9.511556E-1,4.515896E-1,-5.1948085E-4,3.6807077E-3,9.246095E-1,1.0926432E-2,1.1970172E-2,-9.20559E-4,-2.7047493E-4,6.657356E-1,9.0008533E-1,4.8498396E-2,5.603652E-1,-1.2543973E-3,9.355975E-1,2.506119E-4,-3.4475327E-6,-2.469472E-3,-1.4556702E-3,9.21386E-4,1.7897047E-3,9.230736E-1,4.3234308E-4,-1.4657616E-4,-6.197333E-4,6.7472697E-4,4.177004E-5,1.5096307E-2,-2.3340224E-4,9.463332E-1,1.6746472E-1,6.416867E-4,1.1649482E-3,9.0350833E-4,4.23445E-1,4.6994805E-4,-2.1932244E-4,-1.4351487E-4,4.166305E-5,6.8914825E-3,9.267354E-1,6.7519664E-5,-1.1789798E-6,-1.7051547E-4,-6.582115E-4,1.6746472E-1,9.4477063E-1,-3.2992332E-4,-1.5676686E-3,-1.949349E-4,-7.137535E-4,-1.7442225E-4,-6.486245E-4,6.6279565E-5,-1.3516664E-4],"split_indices":[1005,1046,205,154,218,115,264,954,199,245,103,278,22,244,1051,317,2,1126,800,1041,0,303,0,407,1021,0,845,8,217,870,55,1,0,0,0,809,2,0,22,409,0,1041,278,0,0,247,842,800,0,0,1022,1023,10,0,112,85,10,940,0,0,1,0,0,0,39,0,0,834,0,468,802,818,0,1,0,112,1,14,7,800,0,0,0,0,0,1148,1295,94,599,0,0,0,0,1443,6,0,0,818,1,0,0,0,0,0,0,0,1020,35,808,0,51,0,0,0,0,0,0,800,937,0,0,818,0,0,0,0,0,294,227,15,42,1017,0,1399,1010,0,0,0,0,3,0,0,852,0,0,0,298,0,17,0,8,39,0,800,0,0,0,0,0,0,0,856,0,0,0,0,0,445,30,223,23,1297,23,0,1,0,10,0,0,0,22,915,130,0,801,0,0,0,819,0,0,0,800,0,0,0,0,0,0,70,856,937,234,0,0,54,9,1,0,893,836,893,821,0,0,0,0,0,0,0,0,1227,834,866,325,2,0,0,0,0,0,0,0,0,0,0,0,1,882,79,1073,1215,1,0,0,11,1199,0,0,0,0,0,802,0,0,806,821,868,0,52,137,223,73,1,817,230,828,0,0,0,0,0,0,0,0,0,154,0,17,0,0,802,0,1166,0,0,0,0,0,0,0,875,0,0,0,0,0,0,0,18,0,313,15,0,0,0,0,0,0,268,1125,14,1097,0,0,0,0,0,0,0,0,0,1,76,8,0,0,7,0,0,0,0,0,14,14,0,0,800,800,0,0,0,0,101,0,866,1439,0,950,0,815,0,0,0,0,0,0,0,59,0,0,0,0,0,0,0,0,0,0,0,0,0,0,30,822,0,882,0,867,299,1,0,0,0,0,76,0,209,0,2,1,0,0,929,63,813,857,0,0,0,0,0,0,0,0,0,0,0,0,0,0,1,0,0,818,0,0,0,39,0,0,0,0,1,0,0,0,0,0,18,0,0,0,0,0,0,0,0,0],"split_type":[0,0,0,0,0,0,0,0,0,0,0,0,0,0,0,0,0,0,0,0,0,0,0,0,0,0,0,0,0,0,0,0,0,0,0,0,0,0,0,0,0,0,0,0,0,0,0,0,0,0,0,0,0,0,0,0,0,0,0,0,0,0,0,0,0,0,0,0,0,0,0,0,0,0,0,0,0,0,0,0,0,0,0,0,0,0,0,0,0,0,0,0,0,0,0,0,0,0,0,0,0,0,0,0,0,0,0,0,0,0,0,0,0,0,0,0,0,0,0,0,0,0,0,0,0,0,0,0,0,0,0,0,0,0,0,0,0,0,0,0,0,0,0,0,0,0,0,0,0,0,0,0,0,0,0,0,0,0,0,0,0,0,0,0,0,0,0,0,0,0,0,0,0,0,0,0,0,0,0,0,0,0,0,0,0,0,0,0,0,0,0,0,0,0,0,0,0,0,0,0,0,0,0,0,0,0,0,0,0,0,0,0,0,0,0,0,0,0,0,0,0,0,0,0,0,0,0,0,0,0,0,0,0,0,0,0,0,0,0,0,0,0,0,0,0,0,0,0,0,0,0,0,0,0,0,0,0,0,0,0,0,0,0,0,0,0,0,0,0,0,0,0,0,0,0,0,0,0,0,0,0,0,0,0,0,0,0,0,0,0,0,0,0,0,0,0,0,0,0,0,0,0,0,0,0,0,0,0,0,0,0,0,0,0,0,0,0,0,0,0,0,0,0,0,0,0,0,0,0,0,0,0,0,0,0,0,0,0,0,0,0,0,0,0,0,0,0,0,0,0,0,0,0,0,0,0,0,0,0,0,0,0,0,0,0,0,0,0,0,0,0,0,0,0,0,0,0,0,0,0,0,0,0,0,0,0,0,0,0,0,0,0,0,0,0,0,0,0,0,0,0,0,0,0,0,0,0,0,0,0,0,0,0,0,0,0,0,0,0,0,0,0,0,0,0,0,0,0,0,0,0,0,0,0,0,0,0,0,0],"sum_hessian":[7.95E2,1.57E2,6.38E2,8.4E1,7.3E1,1.03E2,5.35E2,1.9E1,6.5E1,3.8E1,3.5E1,8.6E1,1.7E1,4.58E2,7.7E1,9E0,1E1,2.1E1,4.4E1,3.6E1,2E0,2.5E1,1E1,7.8E1,8E0,2E0,1.5E1,4.4E2,1.8E1,3.4E1,4.3E1,6E0,3E0,2E0,8E0,1.8E1,3E0,2E0,4.2E1,3.2E1,4E0,1.4E1,1.1E1,9E0,1E0,6.2E1,1.6E1,5E0,3E0,3E0,1.2E1,2.03E2,2.37E2,4E0,1.4E1,2.8E1,6E0,4.1E1,2E0,1E0,5E0,2E0,1E0,1E0,1.7E1,2E0,1E0,4.1E1,1E0,1.9E1,1.3E1,1E1,4E0,7E0,4E0,5.9E1,3E0,1.1E1,5E0,3E0,2E0,1E0,2E0,6E0,6E0,1.4E2,6.3E1,2.3E1,2.14E2,3E0,1E0,1.2E1,2E0,2E1,8E0,5E0,1E0,2.4E1,1.7E1,1E0,1E0,1E0,4E0,2E0,1.5E1,4E0,3.7E1,1.1E1,8E0,2E0,1.1E1,6E0,4E0,6E0,1E0,2E0,2E0,2E0,5.7E1,1E0,2E0,8E0,3E0,1E0,4E0,2E0,1E0,6.2E1,7.8E1,5.3E1,1E1,2.1E1,2E0,1.5E1,1.99E2,2E0,1E0,1E0,1E0,1.1E1,9E0,1E0,7E0,1.4E1,1E1,1E0,1.6E1,3E1,7E0,3E0,8E0,6E0,2E0,6E0,5E0,5E0,1E0,1E0,3E0,1E0,1E0,5.2E1,5E0,2E0,6E0,1E0,3E0,4.4E1,1.8E1,7.1E1,7E0,2E1,3.3E1,7E0,3E0,1.1E1,1E1,1E0,1E0,5E0,1E1,5.9E1,1.4E2,1E0,1E1,5E0,2E0,9E0,7E0,1E0,6E0,6E0,2E0,3E0,3E0,1E0,1E0,4E0,2E0,2.1E1,3.1E1,2.4E1,2E1,3E0,1.5E1,6.2E1,9E0,5E0,2E0,1.4E1,6E0,1.7E1,1.6E1,2E0,1E0,2E0,8E0,1E0,4E0,5E0,5E0,3E1,2.9E1,1.05E2,3.5E1,9E0,1E0,3E0,2E0,5E0,2E0,1E0,1E0,1E0,1E0,2E1,1E0,6E0,2.5E1,8E0,1.6E1,1.3E1,7E0,1E0,2E0,9E0,5.3E1,5E0,4E0,2E0,3E0,1E1,4E0,4E0,2E0,1.2E1,5E0,1.3E1,3E0,1.3E1,1.7E1,1.3E1,1.6E1,6E0,9.9E1,2.9E1,6E0,2E0,7E0,1E0,5E0,4E0,2.1E1,3E0,5E0,4E0,1.2E1,6E0,7E0,6E0,1E0,7E0,2E0,4.9E1,4E0,2E0,3E0,1E0,3E0,3E0,1E0,1.1E1,1E0,3E0,2E0,4E0,9E0,2E0,1E0,1.1E1,2E0,1.3E1,4E0,5E0,8E0,3E0,1.3E1,1E0,5E0,3.3E1,6.6E1,1.4E1,1.5E1,3E0,3E0,4E0,1E0,9E0,3E0,2E0,5E0,3E0,4E0,4.3E1,6E0,2E0,2E0,7E0,4E0,1E0,1E0,7E0,4E0,6E0,7E0,3E0,1E0,2E0,3E0,7E0,1E0,1E0,2E0,2.5E1,8E0,3.4E1,3.2E1,1E0,1.3E1,1.1E1,4E0,1E0,3E0,2E0,1E0,3E0,1E0,2E0,4.1E1,1E0,5E0,6E0,1E0,3E0,1E0,4E0,2E0,4E0,3E0,1E0,1E0,2E0,1E0,1.8E1,7E0,2E0,6E0,2E0,3.2E1,2.5E1,7E0,6E0,7E0,2E0,2E0,4E1,1E0,1.4E1,4E0,3E0,4E0,4E0,2E0,2.1E1,1.1E1,1.2E1,1.3E1,5E0,2E0,1E0,1E0,3.3E1,7E0,4E0,1E1,2E0,2E0,1E0,2E0,3E0,1E0,1.9E1,2E0,5E0,6E0,6E0,6E0,3E0,1E1,1E0,1E0,1E0,1E0,1.4E1,5E0,4E0,1E0,1E0,5E0,7E0,3E0,1E0,1.3E1,1E0,4E0,1E0,6E0,2E0,1E0],"tree_param":{"num_deleted":"0","num_feature":"1600","num_nodes":"439",